<?xml version="1.0"?>
<MethodSetup Method="MLP::MLPBNN">
  <GeneralInfo>
    <Info name="TMVA Release" value="4.2.1 [262657]"/>
    <Info name="ROOT Release" value="6.24/08 [399368]"/>
    <Info name="Creator" value="ancsmith"/>
    <Info name="Date" value="Tue May 23 20:13:56 2023"/>
    <Info name="Host" value="Linux buildvm-x86-22.iad2.fedoraproject.org 6.1.5-200.fc37.x86_64 #1 SMP PREEMPT_DYNAMIC Thu Jan 12 15:52:00 UTC 2023 x86_64 x86_64 x86_64 GNU/Linux"/>
    <Info name="Dir" value="/afs/cern.ch/user/a/ancsmith/MyAnalysis/myBDT"/>
    <Info name="Training events" value="2000"/>
    <Info name="TrainingTime" value="1.49936485e+00"/>
    <Info name="AnalysisType" value="Classification"/>
  </GeneralInfo>
  <Options>
    <Option name="NCycles" modified="Yes">60</Option>
    <Option name="HiddenLayers" modified="Yes">N+5</Option>
    <Option name="NeuronType" modified="Yes">tanh</Option>
    <Option name="RandomSeed" modified="No">1</Option>
    <Option name="EstimatorType" modified="No">CE</Option>
    <Option name="NeuronInputType" modified="No">sum</Option>
    <Option name="V" modified="Yes">False</Option>
    <Option name="VerbosityLevel" modified="No">Default</Option>
    <Option name="VarTransform" modified="Yes">N</Option>
    <Option name="H" modified="Yes">True</Option>
    <Option name="CreateMVAPdfs" modified="No">False</Option>
    <Option name="IgnoreNegWeightsInTraining" modified="No">False</Option>
    <Option name="TrainingMethod" modified="Yes">BFGS</Option>
    <Option name="LearningRate" modified="No">2.000000e-02</Option>
    <Option name="DecayRate" modified="No">1.000000e-02</Option>
    <Option name="TestRate" modified="Yes">5</Option>
    <Option name="EpochMonitoring" modified="No">False</Option>
    <Option name="Sampling" modified="No">1.000000e+00</Option>
    <Option name="SamplingEpoch" modified="No">1.000000e+00</Option>
    <Option name="SamplingImportance" modified="No">1.000000e+00</Option>
    <Option name="SamplingTraining" modified="No">True</Option>
    <Option name="SamplingTesting" modified="No">False</Option>
    <Option name="ResetStep" modified="No">50</Option>
    <Option name="Tau" modified="No">3.000000e+00</Option>
    <Option name="BPMode" modified="No">sequential</Option>
    <Option name="BatchSize" modified="No">-1</Option>
    <Option name="ConvergenceImprove" modified="No">1.000000e-30</Option>
    <Option name="ConvergenceTests" modified="No">-1</Option>
    <Option name="UseRegulator" modified="Yes">True</Option>
    <Option name="UpdateLimit" modified="No">10000</Option>
    <Option name="CalculateErrors" modified="No">False</Option>
    <Option name="WeightRange" modified="No">1.000000e+00</Option>
  </Options>
  <Variables NVar="4">
    <Variable VarIndex="0" Expression="var1+var2" Label="myvar1" Title="myvar1" Unit="" Internal="myvar1" Type="F" Min="-8.14423561e+00" Max="7.26972866e+00"/>
    <Variable VarIndex="1" Expression="var1-var2" Label="myvar2" Title="Expression 2" Unit="" Internal="myvar2" Type="F" Min="-3.96643972e+00" Max="4.02589369e+00"/>
    <Variable VarIndex="2" Expression="var3" Label="var3" Title="Variable 3" Unit="units" Internal="var3" Type="F" Min="-5.03730011e+00" Max="4.27845287e+00"/>
    <Variable VarIndex="3" Expression="var4" Label="var4" Title="Variable 4" Unit="units" Internal="var4" Type="F" Min="-5.95050764e+00" Max="4.64035463e+00"/>
  </Variables>
  <Spectators NSpec="2">
    <Spectator SpecIndex="0" Expression="var1*2" Label="spec1" Title="Spectator 1" Unit="units" Internal="spec1" Type="F" Min="-9.91655540e+00" Max="8.67800140e+00"/>
    <Spectator SpecIndex="1" Expression="var1*3" Label="spec2" Title="Spectator 2" Unit="units" Internal="spec2" Type="F" Min="-1.48748331e+01" Max="1.30170021e+01"/>
  </Spectators>
  <Classes NClass="2">
    <Class Name="Signal" Index="0"/>
    <Class Name="Background" Index="1"/>
  </Classes>
  <Transformations NTransformations="1">
    <Transform Name="Normalize">
      <Selection>
        <Input NInputs="4">
          <Input Type="Variable" Label="myvar1" Expression="var1+var2"/>
          <Input Type="Variable" Label="myvar2" Expression="var1-var2"/>
          <Input Type="Variable" Label="var3" Expression="var3"/>
          <Input Type="Variable" Label="var4" Expression="var4"/>
        </Input>
        <Output NOutputs="4">
          <Output Type="Variable" Label="myvar1" Expression="var1+var2"/>
          <Output Type="Variable" Label="myvar2" Expression="var1-var2"/>
          <Output Type="Variable" Label="var3" Expression="var3"/>
          <Output Type="Variable" Label="var4" Expression="var4"/>
        </Output>
      </Selection>
      <Class ClassIndex="0">
        <Ranges>
          <Range Index="0" Min="-4.9435877799987793e+00" Max="6.3994679450988770e+00"/>
          <Range Index="1" Min="-3.9664397239685059e+00" Max="3.1126663684844971e+00"/>
          <Range Index="2" Min="-2.7864599227905273e+00" Max="3.5011172294616699e+00"/>
          <Range Index="3" Min="-2.4271266460418701e+00" Max="4.5351858139038086e+00"/>
        </Ranges>
      </Class>
      <Class ClassIndex="1">
        <Ranges>
          <Range Index="0" Min="-8.1442356109619141e+00" Max="7.2697286605834961e+00"/>
          <Range Index="1" Min="-3.2550826072692871e+00" Max="4.0258936882019043e+00"/>
          <Range Index="2" Min="-5.0373001098632812e+00" Max="4.2784528732299805e+00"/>
          <Range Index="3" Min="-5.9505076408386230e+00" Max="4.6403546333312988e+00"/>
        </Ranges>
      </Class>
      <Class ClassIndex="2">
        <Ranges>
          <Range Index="0" Min="-8.1442356109619141e+00" Max="7.2697286605834961e+00"/>
          <Range Index="1" Min="-3.9664397239685059e+00" Max="4.0258936882019043e+00"/>
          <Range Index="2" Min="-5.0373001098632812e+00" Max="4.2784528732299805e+00"/>
          <Range Index="3" Min="-5.9505076408386230e+00" Max="4.6403546333312988e+00"/>
        </Ranges>
      </Class>
    </Transform>
  </Transformations>
  <MVAPdfs/>
  <Weights>
    <Layout NLayers="3">
      <Layer Index="0" NNeurons="5">
        <Neuron NSynapses="9">
          -5.0031321176832344e-02 1.7094566516031959e+00 9.3080142586609005e-01 -4.8072731099546812e-01 -2.4336644168505397e+00 -2.5252185908735969e+00 -7.9274655948568162e-01 2.1283355667362862e+00 -2.1738377719091631e+00 
        </Neuron>
        <Neuron NSynapses="9">
          -1.1310579013888109e+00 -1.2627263837013960e+00 -3.9937348537665301e-01 -5.4668891144964371e-01 -9.7773935754918617e-01 -3.1670500087823100e-01 4.6068887847691081e-01 -6.0018493063364764e-01 1.3600829403374743e+00 
        </Neuron>
        <Neuron NSynapses="9">
          1.6482335010033395e-02 1.2229249411296430e+00 -7.3979701712665130e-02 -2.2088155111075247e+00 -6.9909436071110165e-01 -6.1745061150211522e-01 -1.0940606999212557e+00 -2.4428855937201585e-01 8.5176578685998117e-01 
        </Neuron>
        <Neuron NSynapses="9">
          -3.0545712745628109e+00 -1.5746831805316139e+00 7.3473180860629095e-01 2.5400430606423905e+00 4.4180695249238688e+00 7.3945297112783648e-01 1.9699234831152523e-01 -5.6367136837046494e-01 1.3317918484496378e+00 
        </Neuron>
        <Neuron NSynapses="9">
          2.7465213971449909e-01 3.0367778346693033e+00 -1.0352680498280935e+00 -5.1927268657019399e-01 -7.2828295295973222e-01 1.4777985780512176e-01 2.0015748887500209e+00 3.3833030276873199e-01 -1.0681707448665620e+00 
        </Neuron>
      </Layer>
      <Layer Index="1" NNeurons="10">
        <Neuron NSynapses="1">
          -3.0715604804176060e+00 
        </Neuron>
        <Neuron NSynapses="1">
          -6.9137670788464056e-02 
        </Neuron>
        <Neuron NSynapses="1">
          -7.2286132886222665e-01 
        </Neuron>
        <Neuron NSynapses="1">
          1.6380232073899152e+00 
        </Neuron>
        <Neuron NSynapses="1">
          5.3405706161478861e+00 
        </Neuron>
        <Neuron NSynapses="1">
          2.8513012509159119e+00 
        </Neuron>
        <Neuron NSynapses="1">
          2.1842554838120734e+00 
        </Neuron>
        <Neuron NSynapses="1">
          -8.8429341129769745e-01 
        </Neuron>
        <Neuron NSynapses="1">
          4.9407371373315545e-01 
        </Neuron>
        <Neuron NSynapses="1">
          -7.7003139431027767e-01 
        </Neuron>
      </Layer>
      <Layer Index="2" NNeurons="1">
        <Neuron NSynapses="0"/>
      </Layer>
    </Layout>
    <InverseHessian NElements="3025" NRows="55" NCols="55">
      <Row Index="0">
        1.9726835570263088e+01 -3.4905583955850283e+01 3.7842137443071245e+01 -3.0991080279794789e+00 -3.6334861310681053e+00 -1.2684718377550011e+01 3.5425219009436790e+00 2.6139096276934552e+01 2.8728910651941306e+00 -4.4039370873627268e+00 1.3402045358673990e+02 1.9645122094132934e+00 1.0023527800859320e+00 -6.1330686235901499e-01 7.4590563749697711e+00 -4.8201242314954360e+00 6.5510889391344644e+00 2.8889856924265116e+00 5.2002669446187859e+00 -1.1305690420430352e+01 -1.6982436154464310e+01 -8.5269355847819686e+00 -1.0533975545499816e+00 -2.9993466947753018e+00 -4.6932994781523885e+00 5.7254682029787478e+00 5.9433003851381851e+00 -3.1290011696223267e+01 -2.5107876848161766e+01 3.6274820678574144e+00 8.8747423274029433e+00 4.7217320673758394e+00 1.6134083062752612e+01 8.8134510285006868e+00 -2.0826576213687069e+01 -2.5791258482827413e+00 2.1325713540794902e+00 -4.1329737731170908e+01 -2.5266231682053736e+01 -1.3188630836316677e+00 -3.8303110896642589e-01 1.6465492821793397e+00 -1.1208716567955502e+01 8.0663539313539605e+00 3.1979168895551382e+00 3.5453014277892478e+01 -1.3465267184349084e+01 2.5873093634158881e+01 -7.9230391353995433e+00 -1.1706964613362580e+01 -3.2078306852774077e+01 9.1089281457547138e+00 3.9752131734955221e+00 -1.4153360769566379e+00 1.0598942998492758e+01 
      </Row>
      <Row Index="1">
        -3.4905583917099435e+01 5.7699561739841849e+05 -9.7993661785819279e+02 1.3337465649613480e+03 3.9773238179519228e+02 -3.5924069686201371e+01 -8.7150757895181027e+02 3.3997588374105198e+03 6.2712802683244900e+02 -7.0331261631489461e+00 -1.5429373030337939e+05 -5.9463008572990918e+02 6.2432472794865888e+01 3.7372642713640595e+01 -4.8226143307240669e+01 4.9108386559950509e+02 -2.2021709753819741e+03 1.4941209553960548e+03 -9.6615018820873658e+01 -8.6508292826714387e+04 -2.1192785712330848e+02 -2.0845223715849616e+02 1.8558670853495377e+02 -8.7749532569543078e+01 -1.6204390070257066e+03 -1.0126263796434954e+03 -1.1766230602745836e+03 1.9899257683036893e+02 -2.8908990978466359e+05 -2.4649000159762759e+03 -9.7312920239943105e+02 -6.2192396220469550e+02 3.3559245506550945e+02 7.2808040551947238e+02 -1.2393687196502515e+03 1.2639026035302797e+03 -3.2013224659548108e+01 -3.5815382748965509e+04 2.4670415013855441e+03 1.0734084000753370e+01 4.3853853179501201e+01 -8.8343160844930253e+01 1.2435406584162840e+03 1.0168603968597749e+03 -4.7316292268641263e+02 -1.6345168834674593e+02 3.6566138786613257e+04 -5.1234959368982154e+03 3.1654112604033054e+02 1.3731895526225101e+03 3.7914357303148398e+02 -5.0481775932778364e+03 1.3253489989672667e+03 -1.2709573521456705e+03 -3.4598460472273000e+04 
      </Row>
      <Row Index="2">
        3.7842137440623219e+01 -9.7993661829177290e+02 2.6159276726229459e+03 -3.9580808945925206e+01 -1.5958741212216873e+02 7.9065559283914695e+01 -3.6593304691246956e+01 3.4031105206324617e+02 5.8886037997884827e+01 8.3041444314610988e+00 6.4329259491865814e+03 -3.4924582460027017e+02 -5.6015309142733244e+01 -2.8651678579799647e+01 6.8855720189705792e+01 6.3471933784888662e+01 3.2111599660274578e+01 -3.2913356658298639e+01 2.1855392456943228e+01 1.1779366419706544e+03 5.8993591372275864e+02 3.4900555486313408e+01 -3.1933574947661391e+01 5.2378652554444884e+01 4.4142948911287579e+02 3.4274943254698923e+02 2.2700695744071206e+02 -7.6477329346967821e+01 -4.4859810028515831e+03 -9.9735239535158757e+02 -2.1463526226433750e+01 1.9881570313662519e+02 -1.4337000857848653e+02 -6.5276175908303492e+02 -4.9770337537377759e+02 -2.6773705689219838e+02 5.9983673036505669e+00 -2.1586815153817897e+03 -9.2538969103753368e+02 1.4269151965466307e+01 -1.5568896880930854e+01 9.6423655926328458e+00 2.6068605114534409e+02 5.2558537680512629e+01 5.6342340220990025e+01 2.6745814070774362e+01 -1.1411311727959746e+03 1.8641057378006351e+03 -1.3056285215409792e+02 -5.3225522337999325e+02 1.8789888601732045e+02 7.9385370266266705e+02 -6.9750880812407445e+01 -1.4147164718580267e+01 1.1450119118747314e+03 
      </Row>
      <Row Index="3">
        -3.0991080281480805e+00 1.3337465649695805e+03 -3.9580808948043469e+01 9.7567225784446777e+01 9.5461014213723541e+00 -4.6761481175796042e+00 7.0060464207278343e+01 -3.1615786520697618e+01 1.6252719339628328e+01 -1.4302253835059153e-01 2.9102023824571063e+02 5.7247716092129526e+00 -1.3173459614967293e+00 5.4672807564448149e+00 -4.4451565199228780e+00 1.0720840857158105e+01 -8.3908067653702005e+00 9.1212960082153192e+00 -4.0782713329083879e+00 -1.4720667132265658e+03 -1.2424861352694343e+02 3.5298001665197944e+01 2.5523370036830371e+00 -6.1851246393888157e+00 4.8400643663726008e+01 -4.7927177736627769e+01 -9.2273446270494347e+01 6.9621321389393955e+00 -4.5025168552350669e+02 2.9965842015291500e+01 -1.1243904705310429e+02 -1.9349386800054226e+01 6.8602480174926299e+00 -6.6984580880099358e+01 5.2945741392442145e+01 4.6683930004318924e+01 -6.7846456278484568e-01 1.4250359800034562e+02 4.4155207995745670e+01 3.6753254847265175e+00 2.0986285197647838e+00 -6.8320313244962083e-01 -4.6051953563078328e+01 -8.7509010893643968e-01 5.5257130920068533e+00 -4.2149071845006212e+00 -9.2116007506725367e+01 -8.3177599813174368e+01 4.4782418957391386e+01 5.8700538386383876e+01 -1.3870739444092624e+01 4.0654417116487728e+01 -3.0171593216529743e+01 -1.3576136881248141e+01 5.4702913777470215e+01 
      </Row>
      <Row Index="4">
        -3.6334861311005042e+00 3.9773238192648569e+02 -1.5958741212736348e+02 9.5461014210178128e+00 2.5471647342256649e+01 -5.4436193876893020e+00 1.1863542624969838e+01 -2.8546502249182307e+01 -1.6293118885565828e+01 -3.6766764786372397e-01 -1.8485043813731238e+01 3.3284120076000310e+00 9.1123803721160168e-01 4.9424683321579277e+00 -5.0635130273845803e+00 -6.4664138991852633e+00 -1.0673746729468771e+01 3.8206829538541420e-01 -1.2788964405862999e+00 -4.3543842495256280e+02 -3.8286215162576717e+01 -1.0576008860977701e+01 4.4669317271466662e+00 -3.4770411011994504e+00 -1.4481675897249527e+01 -1.0624291919032176e+01 -1.2045731848059031e+01 4.9942439888825980e+00 -1.7998219378671592e+01 6.5783118816486805e+01 -1.6350932110176588e+00 -3.3112245650081292e+01 6.8407187733394244e+00 2.4128587076680379e+01 4.7245416146690729e+01 2.2970769632778726e+01 -3.7341382749980001e-01 8.0441749267822772e+01 7.4813949637512934e+01 -1.7351334482349143e+00 2.9839952736718285e+00 -4.9224112947220944e-01 -1.7907312591034980e+01 -5.2327035196293203e-01 -1.1946231993163563e+00 -2.2121753939179576e+00 -1.2722421215289925e+01 -1.2660768743841956e+02 -8.9708532360916440e+00 7.6714611961904353e+01 -1.8049929306233384e+01 -3.3006634704733457e+00 3.4436628628678037e+00 -2.3293871022789001e+00 -2.2061879086826934e+01 
      </Row>
      <Row Index="5">
        -1.2684718377870958e+01 -3.5924069548316766e+01 7.9065559275301027e+01 -4.6761481176271698e+00 -5.4436193874249428e+00 6.5350737431623585e+01 -1.0383229266205518e+01 -8.9150743402624926e+00 -7.3986074658931376e+00 9.4841493944827846e+00 -7.8203723030956610e+01 -4.1542081170714006e+01 -4.5163691624275808e+00 -2.3321117329136323e+00 1.3985528570850438e+00 -1.1079750272250863e+01 -2.2604221452171753e+00 -9.8697033120525273e+00 -5.2136762498116616e+00 3.3093290347948096e+02 9.9501924634079675e+00 -1.9604458620088667e+00 2.9018590484751472e-01 1.6250752361775010e+01 2.5397121004095879e+01 1.4277006358466835e+01 -9.2642766398099905e+00 3.0947758043305555e+01 1.5032503776788187e+02 5.0852475422508647e+01 5.2793991270014029e+00 7.2303124479013814e+00 -6.6826658924814197e+01 8.6107533438134487e-01 -3.4156572046927970e+01 1.9893162070884998e+01 -1.4022841180743149e+00 -4.2115813292999803e+01 -1.1559480160331152e+02 -2.3631809490258187e+00 -1.1458308637308920e+00 2.5218428455368977e+00 -4.5951249287410922e+00 -2.2298495582440250e+01 -1.7029804705999297e+01 -5.6894979250653016e+01 4.3242353308828179e+01 1.5487681801814588e+02 -7.8658218130091448e+00 -3.1763319019294670e+01 1.1474986441262719e+02 8.8935806491225293e+01 -1.9664880911984888e+01 5.7368327205295646e+00 -7.3098455890602395e+01 
      </Row>
      <Row Index="6">
        3.5425218996788317e+00 -8.7150757831463125e+02 -3.6593304716376103e+01 7.0060464207639569e+01 1.1863542626206073e+01 -1.0383229264858388e+01 3.0345093091025922e+02 5.2139708659134378e+01 4.5389773129455875e+01 -1.1090911635247371e+00 1.4620741193693257e+03 7.9639054385561550e+01 1.2531514783575380e+01 6.7920185738154570e+00 -4.2777555613652956e+00 -1.0591452993002508e+02 2.6997262990825639e+01 2.6708730001408547e+01 2.0199726194133080e-01 -9.9034868508307568e+02 -3.4768427795958479e+02 -4.0210443661672961e+01 4.3563001842534268e+00 -3.1789995943928759e+00 1.5420655907960096e+02 -6.0232388641899981e+01 -5.8728528790711302e+01 -7.3352812848209048e+00 -3.9735151466727257e+02 1.1673022700634837e+02 -3.6378971662523874e+01 -2.5752408053892314e+01 1.4391628813589961e+00 -3.2124797800660602e+01 -6.4204542089298400e+00 4.8579161049231416e+00 1.2970991020960627e+00 1.8864918125967415e+02 7.6399554885055654e-01 -9.8601405124965531e+00 2.7541793975302369e+00 3.7606167096846690e+00 -2.7391173774972816e+02 1.3450623337648862e+01 7.8121884802416730e-01 9.0918180355072451e+00 -2.7466219220831795e+02 -6.7068119959979128e+01 -1.5200927636108325e+01 7.6338153083388647e+01 -4.7555094208893564e+01 7.5574314297432329e+02 6.7540495463656782e+00 -1.1920433174856235e+01 -4.2292188260509744e+02 
      </Row>
      <Row Index="7">
        2.6139096276344844e+01 3.3997588371498277e+03 3.4031105206362082e+02 -3.1615786517678348e+01 -2.8546502245536868e+01 -8.9150743381042812e+00 5.2139708680855392e+01 8.9227042938257853e+02 2.3748366571827592e+02 -3.5862103095755944e+00 4.9788553910057999e+03 1.6404662275729405e+02 3.2196153322028787e-01 -9.1019356544895338e+00 -7.2987934309777680e+00 -8.1723104268540965e+01 -2.2405016081455869e+01 3.3417811555145164e+01 1.5729686378255896e+00 -4.9356888737433364e+03 5.6157192012227227e+01 -1.3783966219692476e+02 -9.5532212409049784e+00 -1.9591223909591307e+01 -9.8965156711692700e+01 9.0921119116955026e+01 1.6794248175065533e+02 -3.0168351147439346e+01 -2.6183979703560472e+03 -8.2341123539892953e+02 1.1051451708332210e+02 4.9487818332656829e+01 2.8197688946455632e+01 1.3036286389277939e+02 -7.7967023947929079e+02 -3.3578086813812973e+02 2.1161604708122947e+00 -3.9075003704442815e+02 4.2114833777231803e+02 -1.6582585968185619e+01 -4.5120175162298315e+00 -1.2824283881069620e-01 -9.4538615346091518e+01 1.7324294139321808e+02 2.5985196327821562e+01 2.3639250457904396e+01 -9.2010825536301547e+02 -2.4752004059467129e+02 -1.7642658276755793e+02 -1.0682752221439455e+02 -8.8701703850230970e+01 1.1385480130002813e+02 3.5795292711560256e+02 -1.1653893160470911e+01 6.5256258539192334e+02 
      </Row>
      <Row Index="8">
        2.8728910655616602e+00 6.2712802642653696e+02 5.8886038006510439e+01 1.6252719340856110e+01 -1.6293118885523185e+01 -7.3986074673409696e+00 4.5389773125798570e+01 2.3748366572778758e+02 5.7507961848918808e+02 -2.7312779881918501e+00 1.6955626426203687e+03 1.6309916605076941e+02 2.5318142745927954e+01 -4.4783173256754507e+00 -1.1771931404407150e+01 -1.8862895625957606e+01 6.6989777072162440e+01 -1.7658070951502086e+02 -4.9208027620463666e+00 1.5336436447238943e+03 3.4712535443925780e+00 -6.6823147075212681e+00 -9.1071963145089931e+00 -1.9934173915710154e+01 -8.0843894600404326e+01 3.3086704282959669e+00 -4.6028658675789487e+01 1.2532739691881893e+00 -1.5759962337056058e+03 -2.4467323035491779e+02 -2.6870968670622116e+01 2.9379671238689834e+01 1.5333660417469517e+01 3.3391676581893108e+01 -2.0064675219320901e+02 -4.6412081959601568e+02 4.5389350298411146e-01 7.1338031677858203e+02 1.4488883811657308e+02 7.3446542327157722e+00 -2.2393856129707546e+00 -2.6060413449346909e-01 -2.8275263014089177e+01 3.6179507502452424e+01 8.0398277124586073e+01 8.4385711442205746e-01 2.6765304627699265e+01 -1.3283085954778559e+02 -3.5714759104367033e-01 -5.0738060110317974e+01 -6.1317148797411960e+01 -1.3296578420580914e+02 7.0461328408553499e+01 1.3661037801895270e+02 1.1919862828146402e+02 
      </Row>
      <Row Index="9">
        -4.4039370873914585e+00 -7.0331261454157357e+00 8.3041444302190026e+00 -1.4302253835775325e-01 -3.6766764784469724e-01 9.4841493944020492e+00 -1.1090911638976770e+00 -3.5862103097651734e+00 -2.7312779879299898e+00 2.5762243625814945e+00 -1.1602938497009129e+01 -4.0071031738807701e+00 -6.1037854288581417e-01 -3.8209609756252327e-01 -5.6409449101063569e-01 -5.1793780784485222e-01 -7.1723751962212390e-01 -2.2552788514502171e+00 -1.0467804942850085e+00 6.6048710999566538e+01 5.0550323308270881e+00 4.0230266164032130e-01 1.1467916778013752e-01 2.7942468800390392e+00 1.6037231152159019e+00 -2.8622148766268168e-01 -4.4397324560438358e+00 8.4332532591588425e+00 1.0330621697001334e+01 -5.1195419929822208e+00 -3.9232600765922554e-01 4.7851262817896228e-01 -1.0745149087736456e+01 -2.0518304488329353e-01 -2.6694746564473215e-01 5.1032246481396344e+00 -5.1967615852261029e-01 8.6723195795604031e+00 -7.7888016665669193e+00 -7.3699304032467772e-02 -8.2330511447701649e-02 5.3373753639653701e-02 1.5118856797598887e+00 -2.5396196811247616e+00 -1.0880189740044517e+00 -1.3448729871416464e+01 1.0228620057727168e+01 1.0586782257888622e+01 4.8112796013659115e-02 -3.6239845445347783e+00 1.9120321568826032e+01 5.1863998204546089e+00 -4.2887262698397333e-01 1.3541445126179628e+00 -1.2564050913346852e+01 
      </Row>
      <Row Index="10">
        1.3402045350661501e+02 -1.5429373030117154e+05 6.4329259482336811e+03 2.9102023827742232e+02 -1.8485043533689350e+01 -7.8203722761840908e+01 1.4620741207124083e+03 4.9788553903529928e+03 1.6955626417655410e+03 -1.1602938462747261e+01 4.7459712357597664e+05 -8.2988235085345298e+02 -5.9102223835266557e+02 -2.8187158253411745e+01 3.8343400977133854e+01 -1.0387530738151981e+03 2.0864258988876827e+00 8.0558437523649332e+01 -1.3004502169890282e+00 -1.2046331952983141e+05 7.0429799083857210e+02 -8.0459953958721439e+02 -7.3956510691293182e+00 -2.8838819645077228e+02 3.2201147816609327e+03 2.0105888484091859e+03 3.5106241597471226e+03 -2.0237105892614377e+02 -1.3555520765900612e+04 -4.3991916580287134e+03 5.9114036663145646e+02 -5.3409189607674676e+00 2.3081732983153563e+02 -1.9753028543977262e+03 -4.0872744747304077e+03 -4.4459309766829374e+03 1.0430064269434308e+01 3.1326852802081630e+04 7.4827409633826733e+02 -1.8378445659734118e+02 1.4591306053349017e+01 2.1665036654258145e+01 -1.9850907911412135e+03 3.6119228794381343e+02 2.9500641343148675e+02 2.4910848974727054e+02 -7.7209099512624118e+04 3.8607967024419149e+03 -2.4918160200831007e+03 6.3308841667603701e+00 -6.9449908161908513e+02 1.0011463728318267e+04 1.8923862449094743e+03 -1.6611106086297809e+02 6.9209434332247736e+04 
      </Row>
      <Row Index="11">
        1.9645122101995298e+00 -5.9463008590746904e+02 -3.4924582459049884e+02 5.7247716099373775e+00 3.3284120065925227e+00 -4.1542081173039826e+01 7.9639054382357131e+01 1.6404662276405429e+02 1.6309916605287358e+02 -4.0071031742739933e+00 -8.2988235047925264e+02 2.6610013978746508e+02 2.8898075257371115e+01 1.8817519705996719e+00 -2.1380721824958069e+01 -2.3173453815684525e+01 5.9681693414743336e+01 1.8261291103157951e+01 -3.2676701090343854e+00 5.4911725949554238e+02 -6.5862480460827726e+01 -5.1178499674706444e+01 -1.4955811218251582e+00 -2.1769853446588961e+01 -1.2874333561167148e+02 -3.3342188731516309e+01 -8.0211916465659332e+00 -1.5335808328079459e-02 3.9905778486898635e+02 -2.0591917296103873e+02 2.9244284636413568e+01 -7.2054500542158451e-02 4.4295182131329369e+01 1.4809624487484405e+02 -1.6373444157626744e+02 -1.2145318346679971e+02 3.0495372019275935e-01 8.2613548998645069e+02 3.2663625023651730e+02 -4.4943732723711038e+00 6.4070182909760010e-01 -3.0616680012871011e+00 -1.0416399672845066e+02 2.9873879282349034e+01 6.7118776044163955e+00 8.9017375715544489e+00 2.3823860115129636e+02 -4.7251208353767481e+02 -1.8565429005345599e+01 2.5084511791145133e+01 -1.2599927725370520e+02 -1.7259055215550370e+02 7.4982313214326211e+01 2.2719315805005376e+01 -2.7472645432906910e+02 
      </Row>
      <Row Index="12">
        1.0023527802996455e+00 6.2432472736167256e+01 -5.6015309139109441e+01 -1.3173459614287495e+00 9.1123803664569403e-01 -4.5163691631118779e+00 1.2531514780899357e+01 3.2196153564209717e-01 2.5318142747461540e+01 -6.1037854298760408e-01 -5.9102223824044631e+02 2.8898075257650650e+01 1.5207172071504308e+01 -1.1841680454820536e-02 -1.9224909291556855e+00 -2.6424186618384624e+00 1.0605946530980987e+01 9.3751680572521998e+00 -9.8701449488668408e-02 3.1964423192289541e+02 -3.1783080348857595e+01 1.1451062548211631e+01 -1.0508369186097426e+00 -3.2615273679167722e+00 -2.4227197671408714e+01 -2.1978329819757771e+01 1.7977795418260019e+01 -1.4053625641481959e+00 2.7832738844538108e+02 2.1325197657542489e+01 -1.2034559485373510e+01 -8.8872355092195598e-02 5.9276658923772096e+00 1.8456675487113852e+01 1.4982788417672207e+01 -3.8351176104716998e+01 2.8352213016323125e-01 2.4194528875465778e+02 1.9499354270281099e+01 2.1895103304485746e+00 -1.6275475063616707e-02 1.8893542337029193e-01 -9.1631454968235033e+00 -2.5679947116529500e-01 -2.9786487047488102e+00 2.8994145037847261e+00 1.5056856641764426e+02 -5.4829811007593229e+01 2.0351454266913628e+01 5.2415458794120582e+00 -1.3633693820189285e+01 -4.1533992676675993e+01 1.4037035278103556e+00 6.2575632014617888e+00 -1.2855885163044476e+02 
      </Row>
      <Row Index="13">
        -6.1330686236971399e-01 3.7372642740062929e+01 -2.8651678580800773e+01 5.4672807563664891e+00 4.9424683321694269e+00 -2.3321117329413381e+00 6.7920185736422383e+00 -9.1019356553286350e+00 -4.4783173257378763e+00 -3.8209609756383167e-01 -2.8187158310547147e+01 1.8817519707433987e+00 -1.1841680346919514e-02 1.5639476439450206e+00 -7.9219979514552508e-01 -6.0121362943114320e-02 -1.0219183166238484e+00 3.2975792427137520e+00 -9.8288148177922446e-02 -1.2528436733890794e+02 -8.9984132724540391e+00 -1.5903170642429134e+00 1.0022655947852941e+00 -7.5506768959631554e-01 1.0852055563674126e-01 -1.7486712258749830e+00 -2.5117264517581530e+00 2.0182452616754620e-01 4.9957556175886566e+00 1.3006473270884355e+01 -4.1686760973322112e+00 -7.0592549699508549e+00 1.8714345926451059e+00 -1.4288593719237319e+00 1.1199672711622306e+01 4.5023237683203279e+00 -9.0115609170631963e-03 -7.0066304200034892e+00 1.2971911508982341e+01 -9.6919915294426728e-02 6.6936690387162101e-01 -1.6987877503740145e-02 -4.3338529843052624e+00 -5.9080563700059929e-02 1.5389971737413422e-01 1.3373737356144237e+00 -6.2742312457848497e+00 -2.4298496717895702e+01 -1.6793263081697807e+00 1.8131276388083364e+01 -6.3659791995531787e+00 2.5039172800702447e+00 -2.3002713385480522e+00 -2.6741151430372558e+00 -3.0196565363352774e+00 
      </Row>
      <Row Index="14">
        7.4590563748966012e+00 -4.8226143308933388e+01 6.8855720189914251e+01 -4.4451565198702028e+00 -5.0635130272879936e+00 1.3985528574295694e+00 -4.2777555605560735e+00 -7.2987934309427516e+00 -1.1771931404551696e+01 -5.6409449095927222e-01 3.8343400984180334e+01 -2.1380721825163622e+01 -1.9224909292105821e+00 -7.9219979513017635e-01 8.7155675599038034e+00 -4.4029142756644291e-01 -2.0734174262242391e+00 9.9994969074610573e-01 3.0898778029077749e+00 6.8676985861893627e+01 6.3094850730934260e+00 -2.5928760065055507e+00 -7.3884987611099229e-01 4.1192074074216514e+00 5.7539401577859790e+00 2.4693462884251529e+00 2.6942727894275054e+00 -1.2406690732413480e+01 -6.8966193846230453e+01 1.2069186103100810e+01 5.0382153615908472e+00 5.8505021517022344e+00 -7.4646377026903910e-01 -6.7882490796557802e+00 4.5883608088496537e+00 1.1657591971834220e+01 5.8304858488247069e-01 -3.1100665300593832e+01 -6.2695626275184772e+01 -1.5211692865174986e-01 -5.1743223877792399e-01 5.8282350684672979e-01 5.0188709241661584e+00 3.3410884208593501e+00 1.4118498066441163e+00 1.3026330258383084e+01 -1.2536889161326542e+01 7.1854951425453052e+01 -5.0527056405602018e+00 -1.6285769426595330e+01 1.2424822355238266e+01 1.6858126331229666e+01 -1.4105938802706106e+00 -3.9570428765814851e+00 1.6847738089125581e+01 
      </Row>
      <Row Index="15">
        -4.8201242305373171e+00 4.9108386510662967e+02 6.3471933804220932e+01 1.0720840856858047e+01 -6.4664139001461152e+00 -1.1079750273531056e+01 -1.0591452993155855e+02 -8.1723104253664246e+01 -1.8862895628314753e+01 -5.1793780817152424e-01 -1.0387530727993872e+03 -2.3173453818542363e+01 -2.6424186638249694e+00 -6.0121363075173212e-02 -4.4029142694228085e-01 1.0045135013555159e+02 -1.8309308894505875e+01 5.5882220774783304e+00 -7.2543835792826383e-01 1.3756604494573548e+02 1.9617846645431456e+02 6.1374065238766363e+01 -3.6594185119112455e+00 -1.3017597350726047e+00 -6.3354061415576396e+01 -5.3916425203995617e+00 1.9950671406844911e+01 3.7014847921630500e+00 7.1531219440896530e+02 -1.6804567182851878e+02 -5.0130998785734896e+01 9.1465451581314614e+00 8.5284450548732949e+00 -1.1085912995171867e+02 8.0654885543531279e+01 -5.7974225795058416e+00 -7.5025228928398380e-01 -3.3548912064204933e+02 3.6988310014104457e+01 1.5809453391794740e+01 -8.8554464068700089e-01 -3.1878772432146008e+00 1.9259659314991012e+02 -4.1940620298012643e+00 2.4019313692774578e+00 -1.0237037520532510e-02 1.8998492407577757e+02 -4.5658969951409802e+01 5.3123136643786552e+01 -1.5969107150007858e+01 -5.0365765727193654e+00 -5.1671470552441690e+02 -3.2095607027566885e+01 -7.0411523388412451e+00 2.6088213937022641e+02 
      </Row>
      <Row Index="16">
        6.5510889392016622e+00 -2.2021709754083713e+03 3.2111599661456786e+01 -8.3908067651879463e+00 -1.0673746729933312e+01 -2.2604221456917801e+00 2.6997262987757551e+01 -2.2405016079857660e+01 6.6989777074818875e+01 -7.1723751966567306e-01 2.0864259431255050e+00 5.9681693415611562e+01 1.0605946531208531e+01 -1.0219183167258545e+00 -2.0734174262627505e+00 -1.8309308892153297e+01 9.3109264743379640e+01 -1.5755480466669892e+01 3.2026056807663923e+00 2.5749627701801946e+03 -2.0784493692780075e+01 -2.3126631117765442e+01 -2.8555199547335870e+00 -3.2899986445822966e+00 -5.5383824886240829e+00 5.4426183289035102e+01 -1.6898762065833580e+01 -1.2805483451269360e+01 -2.6781720901071094e+02 5.0893851732244954e+01 1.7610458554358186e+01 1.4614968365593155e+01 -1.1996347465611164e+01 4.2111259015198300e+01 -4.8432626982084578e+01 -7.3818567279128658e+01 2.1792897426295106e+00 3.7506165737153412e+02 -8.9741083312467850e+01 -3.2527303083574868e+00 -1.3415628464029989e+00 6.0528581122572112e+00 -5.0361882866292561e+01 -3.2432494861920460e+01 2.0143787445381793e+01 1.0886315503319448e+01 1.6463583376849780e+02 8.2364637943031568e+01 -1.9473471337169144e+01 -3.0294163070475008e+01 -5.0454356287732338e+01 7.9957248297688921e+01 -6.4818918743583879e+01 3.9712800543886793e+01 -1.9662064130248376e+02 
      </Row>
      <Row Index="17">
        2.8889856924302428e+00 1.4941209554428060e+03 -3.2913356656181492e+01 9.1212960081208720e+00 3.8206829556611827e-01 -9.8697033114893848e+00 2.6708730006234386e+01 3.3417811553714323e+01 -1.7658070951639422e+02 -2.2552788514008313e+00 8.0558437433017389e+01 1.8261291102257971e+01 9.3751680572369480e+00 3.2975792427572466e+00 9.9994969083865470e-01 5.5882220741565192e+00 -1.5755480466044673e+01 1.8462725550319502e+02 1.1847085503819621e+00 -1.5721667519001858e+03 -2.8871098045632429e+01 -7.2496323245633274e+00 2.5530211288583637e+00 -2.9209172896150304e-01 5.3214060161376118e+00 -1.4612230502277995e+01 1.4447243076789422e+02 -4.2229619709456934e+00 -2.3803159393232636e+02 -3.3644479096764449e+01 5.3829766833405834e+00 -5.8173856254580745e+00 1.1454567865609402e+01 -1.3480150861921574e+01 -3.3269289443657470e+01 4.5602791756793195e+01 -2.3821094464151982e-02 1.0944358991059863e+02 4.1624245915035864e+01 1.4625824388929529e+00 8.7041442785460921e-01 -7.5166616016021803e-01 -1.0457118119063196e+01 1.6797182860733251e+01 -5.5821336250183620e+01 1.0419307120407172e+01 -8.6769233412559714e+01 -7.8258570660696392e+01 -5.0164740664151468e+00 2.3636221303245346e+01 -1.4725139855373433e+01 7.4608883634585865e+00 1.7724995073339773e+00 -9.7800807131746424e+01 -1.2901388423840860e+01 
      </Row>
      <Row Index="18">
        5.2002669446212249e+00 -9.6615018826339110e+01 2.1855392457619640e+01 -4.0782713328779554e+00 -1.2788964405829584e+00 -5.2136762496882270e+00 2.0199726238801508e-01 1.5729686378649177e+00 -4.9208027620743646e+00 -1.0467804942726859e+00 -1.3004502065937231e+00 -3.2676701092427471e+00 -9.8701449524057905e-02 -9.8288148177360257e-02 3.0898778029333531e+00 -7.2543835826645031e-01 3.2026056808130199e+00 1.1847085503079957e+00 3.8157322061822510e+00 7.5087342888036801e+01 1.2494990656834059e+01 -3.4469474277067547e+00 -4.3521263855670171e-02 1.7799021752667512e+00 3.2569701348392055e-01 7.7717625789550802e+00 5.5488352396411100e+00 -1.1229064768534403e+01 -5.1157057330929092e+01 -1.0267932216715774e+01 5.4271599380981206e+00 1.2309305552387482e+00 3.0692116681835557e+00 -2.2752717986682076e+00 -3.1822929116003102e+00 -1.0533826130679587e+00 7.5026820453273102e-01 1.0477790903804163e+00 -1.4050960524793691e+01 -2.0586286257981859e-01 -7.4677567540714140e-02 6.8538102330479123e-01 4.0347989196757377e+00 2.7986449961464932e+00 3.6216007014927496e+00 1.1565816885631776e+01 -5.6984833355653546e+00 1.4860041696374603e+01 -5.8195169503689499e+00 -3.3792397093443425e+00 -1.0012847007648396e+01 8.7931644352333631e+00 4.2414965519906467e-01 -1.0246023824009223e+00 -1.2623616847532697e+00 
      </Row>
      <Row Index="19">
        -1.1305690380148008e+01 -8.6508292823635042e+04 1.1779366423741508e+03 -1.4720667132501530e+03 -4.3543842512795464e+02 3.3093290332374676e+02 -9.9034868599938636e+02 -4.9356888734168606e+03 1.5336436453386609e+03 6.6048710982187913e+01 -1.2046331953903288e+05 5.4911725978669710e+02 3.1964423201615864e+02 -1.2528436737592983e+02 6.8676985859267006e+01 1.3756604564032750e+02 2.5749627702269936e+03 -1.5721667520013443e+03 7.5087342889499268e+01 5.4659762081220746e+05 1.5176329594425551e+03 2.1720927706884748e+02 -2.0757540055585798e+02 1.5123981606095361e+02 3.5302679290837142e+02 2.0650964240893754e+03 -5.0879929611041194e+02 7.4680039233379318e+00 -2.4340364806851745e+05 3.5074579314352259e+03 1.0243615909968512e+03 7.3023116429961760e+02 -6.0932993996604421e+02 -1.7882285695911264e+00 1.5410066133240650e+03 -2.6857166430447605e+03 2.3691743648792759e+01 -3.1529423286726043e+04 -3.7888200303262879e+03 7.5714084135821111e+01 -7.0875611645502474e+01 9.6684575404484477e+01 5.4130469706447491e+02 -1.1371323862395493e+03 4.5103906315875753e+02 -1.9398201103340375e+02 4.9759228647507502e+04 5.8848114836881841e+03 -1.6997813107278398e+02 -1.6842259011537390e+03 2.9510501398249426e+02 7.0892901596746310e+02 -2.5273633765826912e+03 2.5396957011807372e+03 -4.6151505579422912e+04 
      </Row>
      <Row Index="20">
        -1.6982436152924720e+01 -2.1192785812378861e+02 5.8993591375375684e+02 -1.2424861352694987e+02 -3.8286215161956378e+01 9.9501924629073759e+00 -3.4768427794775562e+02 5.6157192041823237e+01 3.4712535346932256e+00 5.0550323304261155e+00 7.0429799298755825e+02 -6.5862480468384774e+01 -3.1783080353760397e+01 -8.9984132722028107e+00 6.3094850742972994e+00 1.9617846644330211e+02 -2.0784493697305606e+01 -2.8871098038698761e+01 1.2494990657504104e+01 1.5176329580596648e+03 1.1285770965631320e+03 -5.2401220385829870e+00 -8.8421124879095618e+00 3.8125730805572175e+01 -2.0842781400228446e+02 2.8548110744722743e+02 2.8302875372661214e+02 5.4256908311241840e+00 -1.8813736899066716e+03 -1.0594701098883497e+03 9.0985312848163701e+01 5.3736068754920581e+01 -5.3287434464993083e+01 -1.8008417349503509e+02 -2.5033148344493176e+02 -2.2819687225811535e+02 -1.2827665254613465e+00 -1.0632721232261365e+03 -2.6247452425300544e+01 2.1851937745931025e+01 -4.0167823919944219e+00 -5.6351581950906020e+00 6.3338648178728238e+02 2.0204734908319679e+01 3.1588191387036829e+01 -2.6830053361360470e+01 -2.6643054566600233e+02 1.3681214052149832e+02 -1.4110113472957784e+02 -1.4535858150404738e+02 5.3053637051030066e+01 -9.6554376213839021e+02 3.3687584060549753e+01 2.4244523230029547e-01 1.0330742616951241e+03 
      </Row>
      <Row Index="21">
        -8.5269355843575028e+00 -2.0845223753119353e+02 3.4900555503020165e+01 3.5298001664978379e+01 -1.0576008861956314e+01 -1.9604458624408587e+00 -4.0210443665187555e+01 -1.3783966218870518e+02 -6.6823147077607743e+00 4.0230266149544036e-01 -8.0459953886090807e+02 -5.1178499677650734e+01 1.1451062546777052e+01 -1.5903170644083797e+00 -2.5928760060550360e+00 6.1374065240512650e+01 -2.3126631119233110e+01 -7.2496323234478890e+00 -3.4469474275604028e+00 2.1720927659036533e+02 -5.2401220267206554e+00 1.7166471659943178e+02 1.7212863591670591e-01 -2.4303734439853031e+00 7.5086249138525488e+01 -7.5807440145472256e+01 -7.8888360019303576e+00 1.2443515908621356e+01 1.2749008682119893e+03 6.9109939691842413e+01 -1.4680407395402190e+02 1.3262851636191424e+01 2.2380552306883468e+00 -1.4916109500984254e+02 1.7855433518276016e+02 9.5298691136210163e+00 -1.1146668749908102e+00 -5.2382983115838795e+02 -1.4606821402157996e+01 1.8188844660848492e+01 -2.0513778937617562e+00 -2.4038945527450828e+00 8.5451415626170416e+01 -2.1257136292232694e+01 -5.9376097267234051e+00 -1.0425707069440392e+01 1.5689205168803090e+02 4.4223116584201314e+01 1.8729447771263332e+02 -3.9941313367469633e+01 1.3331054295304416e+01 -1.6208167600040812e+02 -6.8750947594408231e+01 -1.8278899684762151e+00 7.4983929880021677e+01 
      </Row>
      <Row Index="22">
        -1.0533975545973320e+00 1.8558670858150072e+02 -3.1933574949220151e+01 2.5523370035966515e+00 4.4669317271640407e+00 2.9018590489218166e-01 4.3563001840779556e+00 -9.5532212423652894e+00 -9.1071963144218433e+00 1.1467916779485243e-01 -7.3956511692340428e+00 -1.4955811215725383e+00 -1.0508369184178505e+00 1.0022655947837857e+00 -7.3884987614442466e-01 -3.6594185117394389e+00 -2.8555199544982770e+00 2.5530211286494482e+00 -4.3521263868324667e-02 -2.0757540048850933e+02 -8.8421124884547488e+00 1.7212863616458096e-01 2.5874164186982194e+00 2.7429129710223066e-01 6.6340628984139656e+00 1.0504885220583260e-01 -5.4675813860174483e+00 1.3583419827525010e+00 9.3778698406022158e+00 2.0102994386526071e+01 -3.4947981269462791e-01 -7.2047325441108585e+00 -5.4725028811468601e-01 4.7005634858515197e+00 8.3745128012546299e+00 1.3928044339530565e+01 -1.0340997902652867e-01 2.4804713141241223e+01 7.9934966148317894e+00 -9.4448432265731508e-01 5.7006550877431394e-01 -8.2665478262780090e-02 -9.2932623473411606e+00 -8.9449342801157961e-01 -1.7546526738967401e+00 -1.5060412272921477e+00 -1.0295818290143718e+01 -1.7987004935451154e+01 2.4545889233485538e+00 1.2560763518854600e+01 -2.9887574711817200e-01 2.5346104805641001e+01 -2.6128145689795552e+00 -3.1922932912193227e+00 -1.7833084097937082e+01 
      </Row>
      <Row Index="23">
        -2.9993466948714556e+00 -8.7749532517234911e+01 5.2378652552081128e+01 -6.1851246394276203e+00 -3.4770411011369244e+00 1.6250752361879218e+01 -3.1789995945325771e+00 -1.9591223910425185e+01 -1.9934173915057617e+01 2.7942468800776439e+00 -2.8838819655466068e+02 -2.1769853445884124e+01 -3.2615273676629926e+00 -7.5506768959434822e-01 4.1192074073311389e+00 -1.3017597348769101e+00 -3.2899986442885307e+00 -2.9209172930912430e-01 1.7799021752295943e+00 1.5123981612799253e+02 3.8125730805197911e+01 -2.4303734439382505e+00 2.7429129708680144e-01 1.1502366953798337e+01 1.2203297818963568e+01 1.3613760446381043e+01 3.0604213228497930e+00 3.9700634517428544e+00 -5.0194277825125027e+01 -6.7479825243062956e+00 6.1803606346460107e+00 3.5383401794139608e+00 -2.2384561191093034e+01 -8.4711131509260706e+00 -3.9310800137548476e+00 1.7553673250470418e+01 -2.1355886407068286e-01 5.4328475482092472e+01 -6.1713253043973658e+01 -3.5981136871220876e-01 -3.9666014215687001e-01 7.2953054987568311e-01 1.3429370070597354e+01 -3.8768998494766267e+00 -2.8636690328063503e+00 -1.2051347114287033e+01 1.1466896130522324e+01 6.5600555344659398e+01 -7.9392118597738364e+00 -1.3629844082460266e+01 3.8645870705558984e+01 4.2845562198143909e+01 -7.2741810759204739e+00 -3.6991063183424644e+00 -4.0020753799579822e+01 
      </Row>
      <Row Index="24">
        -4.6932994804029136e+00 -1.6204390062196180e+03 4.4142948908240828e+02 4.8400643663050261e+01 -1.4481675895137810e+01 2.5397121008954912e+01 1.5420655908432508e+02 -9.8965156741557223e+01 -8.0843894599206280e+01 1.6037231161398608e+00 3.2201147799369792e+03 -1.2874333560985406e+02 -2.4227197668689897e+01 1.0852055591835352e-01 5.7539401569016206e+00 -6.3354061418193965e+01 -5.5383824841571538e+00 5.3214060096438551e+00 3.2569701281433083e-01 3.5302679416557658e+02 -2.0842781402229269e+02 7.5086249138057212e+01 6.6340628988715515e+00 1.2203297820268887e+01 4.5570270797927105e+02 4.3874504717150579e+01 -1.9936933521602292e+01 4.9392512372681026e+00 -9.0901174630236346e+02 2.8112038424760038e+02 -7.9115789617975395e+01 6.9287978960101384e+00 -3.8940510176407344e+01 -2.8510262942428488e+02 5.1633211605046441e+01 9.5905581670789317e+01 3.3276849516230146e-02 -1.0894250782118716e+03 -2.3000500841288928e+02 -2.4929894565526407e+00 -1.1021553540730873e+00 1.6514800997655836e+00 -1.8710191458437012e+02 -3.1827712408723734e+01 -1.3992054371606889e+01 -1.2474845752725230e+01 -5.7209230954656368e+02 6.2722865714087629e+02 4.8595038789457696e+01 -4.5181957216791403e+01 5.1127593120511655e+01 1.1236399030774289e+03 -1.0948516883180434e+02 -2.8862434842763527e+01 -8.0687974816616432e+01 
      </Row>
      <Row Index="25">
        5.7254682023904593e+00 -1.0126263795237755e+03 3.4274943253738149e+02 -4.7927177736683646e+01 -1.0624291917376222e+01 1.4277006360489167e+01 -6.0232388633711082e+01 9.0921119112035512e+01 3.3086704249136858e+00 -2.8622148735993846e-01 2.0105888481905567e+03 -3.3342188732231762e+01 -2.1978329819844873e+01 -1.7486712255687706e+00 2.4693462882643757e+00 -5.3916425265852013e+00 5.4426183289724577e+01 -1.4612230502689556e+01 7.7717625788325790e+00 2.0650964242923073e+03 2.8548110743273810e+02 -7.5807440150188455e+01 1.0504885273353981e-01 1.3613760447039340e+01 4.3874504724670381e+01 2.5850066190287674e+02 1.3244417508067372e+02 -1.6666982275635633e+01 -2.7828470522710122e+03 -2.1654677710187826e+02 8.6925058641185871e+01 1.1720865143152103e+01 -4.0063733161564166e+01 -3.7290607184143468e+01 -2.7333928417531604e+02 -1.1928526118920679e+02 2.5638246792940169e+00 -2.3921169000057193e+02 -1.1407656835177950e+02 -1.0701438467782065e+01 -7.1808444550550421e-01 6.0462692873237582e+00 5.4520154495565606e+01 -6.1188651920055506e+00 1.9179650336801782e+01 6.0920250949156696e+00 -3.7988095136928894e+02 3.2740876673595358e+02 -1.5828661977143963e+02 -4.2633695313977569e+01 -1.4441629734219937e+01 1.8342624932416663e+02 -2.9038542955764484e+01 9.6112737504000378e+00 3.2714709176018914e+02 
      </Row>
      <Row Index="26">
        5.9433003847797181e+00 -1.1766230604846496e+03 2.2700695744310397e+02 -9.2273446270338013e+01 -1.2045731845127349e+01 -9.2642766365224816e+00 -5.8728528769536751e+01 1.6794248175220400e+02 -4.6028658687544748e+01 -4.4397324557355660e+00 3.5106241602562368e+03 -8.0211916531441148e+00 1.7977795415784385e+01 -2.5117264511351038e+00 2.6942727897940131e+00 1.9950671390345633e+01 -1.6898762066849031e+01 1.4447243077034261e+02 5.5488352397721883e+00 -5.0879929630295373e+02 2.8302875369843775e+02 -7.8888360135015798e+00 -5.4675813847123003e+00 3.0604213243298091e+00 -1.9936933492754861e+01 1.3244417508726838e+02 5.2252509485048984e+02 -1.6442800201139772e+01 -2.1813418001169339e+03 -3.1391257673794456e+02 8.7981899957710326e+01 2.0070855501624209e+01 5.8458199077880213e+00 -9.8350466049128755e+01 -2.1218489389908069e+02 -3.3615017305973834e+02 1.6042324133456012e+00 -7.8031974035354199e+02 6.3479318454626217e+01 1.4630173885895317e+01 -1.6784854911669971e+00 -3.8185787152378214e-01 1.3518371892053244e+02 4.6314506031235879e+01 -3.7640120714701141e+01 2.2614160437233977e+01 -8.7375704861180532e+02 8.9960459427619554e+01 -7.6264560292044223e+01 -4.1657845781233846e+01 -1.9470540470421128e+01 -1.1929614421270276e+02 5.8796763864604117e+01 -8.0799170279546402e+01 9.3824905043286549e+02 
      </Row>
      <Row Index="27">
        -3.1290011696243180e+01 1.9899257690964441e+02 -7.6477329351774117e+01 6.9621321386921426e+00 4.9942439887892816e+00 3.0947758042676085e+01 -7.3352812873828981e+00 -3.0168351148385000e+01 1.2532739701289124e+00 8.4332532591091010e+00 -2.0237105908639205e+02 -1.5335806630773163e-02 -1.4053625636909288e+00 2.0182452614059354e-01 -1.2406690732582398e+01 3.7014847941738083e+00 -1.2805483451132034e+01 -4.2229619709576376e+00 -1.1229064768542870e+01 7.4680040015082341e+00 5.4256908343176562e+00 1.2443515909622628e+01 1.3583419826475938e+00 3.9700634515378823e+00 4.9392512326036524e+00 -1.6666982276916947e+01 -1.6442800201916526e+01 5.6837405663471309e+01 2.3954378600307973e+02 1.3547841648486038e+01 -1.3881752537434984e+01 -5.7903448706807925e+00 -3.0430018653384366e+01 -1.4851492771957462e+00 2.1803639712215983e+01 1.2423749155758628e+01 -3.9369134719037646e+00 5.4133561482689103e+01 4.1652251562501291e+01 1.1285452394333961e+00 3.5177870820556290e-01 -2.7206927560697003e+00 6.7579470882237693e+00 -1.4031017405687159e+01 -1.2165996755444379e+01 -6.6454631081286038e+01 5.2595803096561568e+01 -3.8989809018001253e+01 1.4207700351050249e+01 1.2477945363436973e+01 6.9283980964599550e+01 -1.3165149283833641e+01 -2.5118022445945662e+00 3.3935079338194987e+00 -4.7395562526470002e+01 
      </Row>
      <Row Index="28">
        -2.5107876845017017e+01 -2.8908990978884511e+05 -4.4859810027455333e+03 -4.5025168552975674e+02 -1.7998219373295797e+01 1.5032503777610691e+02 -3.9735151461351052e+02 -2.6183979702761317e+03 -1.5759962337946890e+03 1.0330621696597063e+01 -1.3555520757114515e+04 3.9905778481839843e+02 2.7832738841973332e+02 4.9957556191793628e+00 -6.8966193839931293e+01 7.1531219435177991e+02 -2.6781720903578753e+02 -2.3803159388955783e+02 -5.1157057328504379e+01 -2.4340364807394706e+05 -1.8813736899223759e+03 1.2749008681519053e+03 9.3778698447484032e+00 -5.0194277818221963e+01 -9.0901174618165896e+02 -2.7828470522019625e+03 -2.1813417999941230e+03 2.3954378599650664e+02 5.4653429437710345e+05 4.3995766916636958e+03 -6.4068965581867019e+01 3.3154464702273629e+01 9.5109720935399764e+01 -1.2192157749449666e+02 4.5276344919375188e+03 4.5911741811102438e+03 -2.5875956687381404e+01 -2.0163056199171391e+04 -6.7327850474710274e+01 8.2907986268602087e+01 -9.9780591971504577e+00 -3.6669175045204298e+01 9.3741852437264583e+02 -4.8544281899041374e+02 -8.7017712482025865e+02 -2.9764714579726785e+02 -3.4077662060422313e+03 -2.5460396971300479e+03 2.5029635996157558e+03 -3.5824647468266630e+02 4.5765913382704741e+02 -5.4316391732189577e+03 -5.5844939004010791e+02 1.4908431028990924e+02 7.5053255248348178e+03 
      </Row>
      <Row Index="29">
        3.6274820663511491e+00 -2.4649000144354068e+03 -9.9735239539501310e+02 2.9965842011971745e+01 6.5783118812997003e+01 5.0852475422543648e+01 1.1673022697745591e+02 -8.2341123543373669e+02 -2.4467323033640184e+02 -5.1195419924515591e+00 -4.3991916613664944e+03 -2.0591917294476707e+02 2.1325197665705673e+01 1.3006473269893235e+01 1.2069186101655987e+01 -1.6804567180608910e+02 5.0893851739725505e+01 -3.3644479106059578e+01 -1.0267932217519501e+01 3.5074579335250892e+03 -1.0594701098701203e+03 6.9109939709531901e+01 2.0102994384752286e+01 -6.7479825250316026e+00 2.8112038419890928e+02 -2.1654677712395528e+02 -3.1391257677422982e+02 1.3547841652088575e+01 4.3995766916545108e+03 2.2573898566344155e+03 -3.8279549714262799e+01 -9.1663214755082493e+01 -1.2099413798565124e+01 2.3824420704449329e+02 8.2146323918321741e+02 5.0795257887700456e+02 1.2178676556845858e+00 7.8836892420096774e+02 -6.1876758454492642e+02 -2.2460729850909338e+01 4.5903730730913459e+00 1.2522728224436431e+01 -5.2371006183613713e+02 -2.1807131672277822e+02 -7.8091859966048105e+01 1.4064379119596452e+01 1.0536242160155248e+03 4.4147071919837208e+02 1.9634592658324365e+02 2.1095575037471826e+02 1.0725337872129964e+02 1.0142671388590230e+03 -3.8048233385964409e+02 2.9137453981277773e+01 -1.6007083876322943e+03 
      </Row>
      <Row Index="30">
        8.8747423272596535e+00 -9.7312920212376048e+02 -2.1463526236132410e+01 -1.1243904705307912e+02 -1.6350932106911307e+00 5.2793991273796905e+00 -3.6378971659459467e+01 1.1051451707967345e+02 -2.6870968669593935e+01 -3.9232600755188685e-01 5.9114036610348558e+02 2.9244284639079268e+01 -1.2034559484260285e+01 -4.1686760972956751e+00 5.0382153613479232e+00 -5.0130998787462630e+01 1.7610458555704952e+01 5.3829766824690779e+00 5.4271599380347624e+00 1.0243615913484828e+03 9.0985312839244344e+01 -1.4680407395430757e+02 -3.4947981259044147e-01 6.1803606347126845e+00 -7.9115789618452879e+01 8.6925058637814033e+01 8.7981899949164585e+01 -1.3881752536940922e+01 -6.4068965636775829e+01 -3.8279549703481408e+01 2.1716767840624726e+02 7.8949054066410742e+00 -4.9174952636794487e+00 1.5640563277487354e+02 -1.5405483492659818e+02 -1.5639317053945994e+01 1.2740828967402749e+00 -6.6000634122694919e+00 -2.2067758167283436e+01 -1.6328279005508307e+01 -6.9787757067237088e-01 1.7511271266067454e+00 -2.4329291259484428e+01 1.4821116955375873e+01 -1.0660999577858131e+01 1.0238056276376849e+01 -4.2973471055540230e+01 2.4288853833069286e+01 -1.5546977487595248e+02 -3.2046824177707578e+01 4.4962123349501510e+00 7.7123935087377461e+01 6.4864464390420594e+01 4.5960311957344020e+00 -9.5367958554380195e+01 
      </Row>
      <Row Index="31">
        4.7217320674792660e+00 -6.2192396240609378e+02 1.9881570314444502e+02 -1.9349386799550832e+01 -3.3112245650136714e+01 7.2303124481166208e+00 -2.5752408052357218e+01 4.9487818338495003e+01 2.9379671238705026e+01 4.7851262817870932e-01 -5.3409185313394119e+00 -7.2054501939916804e-02 -8.8872355942839931e-02 -7.0592549699425753e+00 5.8505021518531279e+00 9.1465451569066545e+00 1.4614968364817386e+01 -5.8173856250256542e+00 1.2309305552608336e+00 7.3023116402515006e+02 5.3736068756360538e+01 1.3262851634874611e+01 -7.2047325440981105e+00 3.5383401794595954e+00 6.9287978988669749e+00 1.1720865145610276e+01 2.0070855506418013e+01 -5.7903448709314436e+00 3.3154464713385096e+01 -9.1663214761278027e+01 7.8949054070737574e+00 4.5432289592339458e+01 -8.0428546024866154e+00 -2.1216672440501753e+01 -6.8568901904147680e+01 -4.0669103213998042e+01 4.3822271757604092e-01 -9.1869530780518176e+01 -8.3336188292385302e+01 2.5440726506072933e+00 -4.1549843885441096e+00 4.9874694082775006e-01 2.9010274036313287e+01 1.9156891588763041e+00 2.7027210902747352e+00 2.1788348801313449e+00 3.0346240562863279e+01 1.5291412027570573e+02 1.1185171823681324e+01 -1.0378511161181832e+02 2.1671902123353682e+01 -2.6370299916213870e+01 2.8342309689489156e+00 7.7709334296125050e+00 3.9225575208364276e+01 
      </Row>
      <Row Index="32">
        1.6134083063103319e+01 3.3559245492702757e+02 -1.4337000856937061e+02 6.8602480175524256e+00 6.8407187730327585e+00 -6.6826658924834931e+01 1.4391628828761043e+00 2.8197688948873520e+01 1.5333660415583481e+01 -1.0745149087825141e+01 2.3081733010686003e+02 4.4295182128913581e+01 5.9276658916503209e+00 1.8714345926135181e+00 -7.4646376990470742e-01 8.5284450534746270e+00 -1.1996347466181987e+01 1.1454567866444508e+01 3.0692116683223816e+00 -6.0932994012915879e+02 -5.3287434465609635e+01 2.2380552302997074e+00 -5.4725028805715770e-01 -2.2384561190968725e+01 -3.8940510171024869e+01 -4.0063733159461719e+01 5.8458199113151181e+00 -3.0430018654065343e+01 9.5109720942564309e+01 -1.2099413798655569e+01 -4.9174952633108004e+00 -8.0428546022344136e+00 8.4295536964031385e+01 1.8308699516630828e+01 3.9692356610596704e+01 -1.5695236090814371e+01 7.1827579619539605e-01 -4.4503083395236445e+00 1.5681798913501203e+02 1.9102536389928972e+00 1.1755333524861724e+00 -4.4831632687566794e+00 -7.3474672074354395e+00 2.8553646781025463e+01 1.1724398098641599e+01 6.1686476442796639e+01 -3.6771679035686091e+01 -1.8986014180607535e+02 1.3078928188980104e+01 3.5375831349828758e+01 -1.0890756205876166e+02 -1.2777307836253500e+02 4.4183434787521783e+01 -6.4334145042137116e+00 9.4244746563775607e+01 
      </Row>
      <Row Index="33">
        8.8134510290097978e+00 7.2808040566241834e+02 -6.5276175908620030e+02 -6.6984580879314791e+01 2.4128587075664093e+01 8.6107533193512609e-01 -3.2124797805063167e+01 1.3036286389481552e+02 3.3391676586459198e+01 -2.0518304517935348e-01 -1.9753028546544374e+03 1.4809624487895655e+02 1.8456675488383894e+01 -1.4288593721121714e+00 -6.7882490798754134e+00 -1.1085912994733167e+02 4.2111259015555106e+01 -1.3480150861980931e+01 -2.2752717986215885e+00 -1.7882284747902304e+00 -1.8008417349137540e+02 -1.4916109500507474e+02 4.7005634854890612e+00 -8.4711131518409957e+00 -2.8510262943237910e+02 -3.7290607188477907e+01 -9.8350466051048897e+01 -1.4851492781691604e+00 -1.2192157747643068e+02 2.3824420703288951e+02 1.5640563277070942e+02 -2.1216672438897049e+01 1.8308699519297306e+01 5.3138986890603769e+02 -1.2755098633040983e+02 4.8965640197899837e+01 5.5312877216377387e-01 1.8449408112979909e+03 9.5640677129221956e+01 -2.9312995171541655e+01 2.0687864077632341e+00 2.7380018667559938e+00 -1.8882509135795596e+02 -2.7478790766273704e+00 -6.2524906630395094e+00 2.5141659137080126e+00 3.6390714907161055e+02 -4.5487913236966682e+02 -9.4177202379563724e+01 5.0817062641738517e+01 -2.3279060865610148e+01 -1.3376479124413615e+02 1.0049678418838960e+02 3.7864533035792050e+01 -5.1892427419227249e+02 
      </Row>
      <Row Index="34">
        -2.0826576212787131e+01 -1.2393687195385573e+03 -4.9770337536664738e+02 5.2945741389845239e+01 4.7245416142706979e+01 -3.4156572049761508e+01 -6.4204542315602566e+00 -7.7967023947733719e+02 -2.0064675218467363e+02 -2.6694746599417840e-01 -4.0872744750911370e+03 -1.6373444157148742e+02 1.4982788419461372e+01 1.1199672710754101e+01 4.5883608091144197e+00 8.0654885559073136e+01 -4.8432626981397789e+01 -3.3269289444402759e+01 -3.1822929114628096e+00 1.5410066134507069e+03 -2.5033148341265070e+02 1.7855433519223874e+02 8.3745127997894713e+00 -3.9310800147452483e+00 5.1633211577989073e+01 -2.7333928417878315e+02 -2.1218489389329579e+02 2.1803639710569655e+01 4.5276344920522533e+03 8.2146323914418281e+02 -1.5405483493127713e+02 -6.8568901897939455e+01 3.9692356613742945e+01 -1.2755098633218633e+02 9.2789057701565503e+02 3.3407699640800888e+02 -2.9568493402241245e+00 -2.0897265707865881e+02 -2.1011271164541319e+02 2.4727646131128555e+01 6.2234984824568826e+00 -4.4391568610191001e+00 8.0995502488123975e+01 -1.1906536051233715e+02 -1.4602363253388752e+01 3.7278417749335802e+00 8.9634470870490645e+02 -8.6830077672979897e+01 2.6257422981418256e+02 1.6829402530669176e+02 2.7082211042354231e+01 -2.5858262200122334e+02 -2.3960595161513533e+02 9.4770454382989442e+00 -6.1167434713775845e+02 
      </Row>
      <Row Index="35">
        -2.5791258484275659e+00 1.2639026041161269e+03 -2.6773705690333190e+02 4.6683930002909989e+01 2.2970769630638443e+01 1.9893162070042990e+01 4.8579160930469243e+00 -3.3578086814916696e+02 -4.6412081958758779e+02 5.1032246481969992e+00 -4.4459309779587202e+03 -1.2145318345973328e+02 -3.8351176101315332e+01 4.5023237678082921e+00 1.1657591971396528e+01 -5.7974225698151258e+00 -7.3818567275662190e+01 4.5602791753642691e+01 -1.0533826132007107e+00 -2.6857166422565933e+03 -2.2819687224739789e+02 9.5298691217583382e+00 1.3928044338678529e+01 1.7553673250075917e+01 9.5905581650736963e+01 -1.1928526119746175e+02 -3.3615017307204653e+02 1.2423749156225284e+01 4.5911741811051033e+03 5.0795257886959342e+02 -1.5639317059057277e+01 -4.0669103210539234e+01 -1.5695236090241441e+01 4.8965640201346616e+01 3.3407699642100147e+02 7.4496499954902856e+02 -2.2014487618149587e+00 -5.4480551316401397e+02 -1.7795591160721932e+02 -2.1383152753240658e+01 2.9222393647905136e+00 -1.8745746743641938e+00 -9.1376122788978464e+01 -5.1912288854258861e+01 -7.2899277289723273e+01 -2.0880846147411603e+01 6.0450958760555943e+02 4.2677109447824229e+01 6.1848501918490193e+01 6.2136129823220244e+01 9.8493946197670510e+01 2.2195045509907931e+02 -1.0817543727727194e+02 -8.2097392360713215e+01 -7.9936714000251322e+02 
      </Row>
      <Row Index="36">
        2.1325713540767564e+00 -3.2013224663905362e+01 5.9983673038761331e+00 -6.7846456276541522e-01 -3.7341382749166963e-01 -1.4022841180362198e+00 1.2970991022338776e+00 2.1161604708520372e+00 4.5389350296168218e-01 -5.1967615851881521e-01 1.0430064278093113e+01 3.0495372010637012e-01 2.8352213014120831e-01 -9.0115609152729183e-03 5.8304858488917788e-01 -7.5025228939004207e-01 2.1792897426255977e+00 -2.3821094480255045e-02 7.5026820453102205e-01 2.3691743644729740e+01 -1.2827665256511707e+00 -1.1146668750416420e+00 -1.0340997902136929e-01 -2.1355886406133856e-01 3.3276849751307291e-02 2.5638246793512653e+00 1.6042324133661094e+00 -3.9369134718963315e+00 -2.5875956687641064e+01 1.2178676558996733e+00 1.2740828967572393e+00 4.3822271755946202e-01 7.1827579615550607e-01 5.5312877212022704e-01 -2.9568493402944358e+00 -2.2014487618026064e+00 3.9104392032052360e-01 -2.4050397175702010e+00 -5.5079898271589300e+00 -1.6757796473242276e-01 -3.6364773239941278e-02 4.7055760510820321e-01 -1.5795515176299817e+00 7.2282090575334981e-02 8.1202171636662679e-01 4.0761217027698615e+00 -2.2808406972337987e+00 4.8356767724931453e+00 -1.1876889450724339e+00 -1.0596470868145036e+00 -5.0729751995400933e+00 3.7963581225099867e+00 -1.6656298711314408e+00 2.4697390797184657e-01 1.8627883881681553e-01 
      </Row>
      <Row Index="37">
        -4.1329737832493265e+01 -3.5815382762253284e+04 -2.1586815163454739e+03 1.4250359804965410e+02 8.0441749695790350e+01 -4.2115812919248128e+01 1.8864918332980596e+02 -3.9075003760267282e+02 7.1338031532581226e+02 8.6723196227176231e+00 3.1326852836906910e+04 8.2613548929715762e+02 2.4194528850587085e+02 -7.0066303308340139e+00 -3.1100665296253283e+01 -3.3548912224435480e+02 3.7506165719882119e+02 1.0944359016989620e+02 1.0477790825825650e+00 -3.1529423296034336e+04 -1.0632721262897976e+03 -5.2382983236366999e+02 2.4804713296990030e+01 5.4328475634451024e+01 -1.0894250753750675e+03 -2.3921168946166290e+02 -7.8031974060251378e+02 5.4133561679824197e+01 -2.0163056210935116e+04 7.8836892876355114e+02 -6.6000625221131486e+00 -9.1869531440970903e+01 -4.4503087128090719e+00 1.8449408115315546e+03 -2.0897265698405681e+02 -5.4480551144475612e+02 -2.4050397290047840e+00 9.0004679688004218e+05 2.9388703014033831e+02 -2.3993686479171544e+01 5.5523607016393726e+00 -2.1666486877129785e+00 -7.8663565539415526e+02 8.9034450411952434e+01 1.6403311164421550e+02 -6.0599001726387314e+01 -1.1893232738339828e+05 -1.6689466198576827e+03 -1.5756162508074124e+02 3.4949707033592858e+02 -8.4938715460921230e+00 -4.5318294894123392e+02 -4.0820445367805519e+01 2.1029701066962809e+02 1.1868901663931606e+05 
      </Row>
      <Row Index="38">
        -2.5266231680524868e+01 2.4670415010098368e+03 -9.2538969102045326e+02 4.4155207996153393e+01 7.4813949637322750e+01 -1.1559480160645569e+02 7.6399555384080031e-01 4.2114833778010598e+02 1.4488883810794428e+02 -7.7888016672973777e+00 7.4827409713860834e+02 3.2663625023142345e+02 1.9499354268189109e+01 1.2971911509111735e+01 -6.2695626274406777e+01 3.6988310010427995e+01 -8.9741083314975413e+01 4.1624245920207471e+01 -1.4050960524104767e+01 -3.7888200308687519e+03 -2.6247452426615439e+01 -1.4606821402626849e+01 7.9934966152890397e+00 -6.1713253044261251e+01 -2.3000500839714101e+02 -1.1407656834618456e+02 6.3479318467372650e+01 4.1652251559186567e+01 -6.7327850447269157e+01 -6.1876758454785488e+02 -2.2067758166364328e+01 -8.3336188292693166e+01 1.5681798913816502e+02 9.5640677121180715e+01 -2.1011271165333989e+02 -1.7795591160790025e+02 -5.5079898269880232e+00 2.9388703116812394e+02 1.2417294294064104e+03 6.5976071431678687e+00 8.1016571372022419e+00 -1.9769815374831229e+01 8.3914425686431002e+00 1.5041505891203832e+02 1.8896633665624680e+01 -7.9658412158340184e+00 -2.5847035167704666e+02 -1.3189345038374413e+03 6.0760415883078736e+00 2.4668764622289518e+02 -2.6422781603449255e+02 -7.1978086291475756e+02 3.3323543795072112e+02 -1.8228654682004340e+01 4.7607461484285483e+02 
      </Row>
      <Row Index="39">
        -1.3188630834822277e+00 1.0734083916955569e+01 1.4269151968868911e+01 3.6753254846844658e+00 -1.7351334484111680e+00 -2.3631809492279245e+00 -9.8601405129166508e+00 -1.6582585965803844e+01 7.3446542324662687e+00 -7.3699304084652084e-02 -1.8378445642647785e+02 -4.4943732729041557e+00 2.1895103301154535e+00 -9.6919915320742511e-02 -1.5211692854604308e-01 1.5809453391911802e+01 -3.2527303087511825e+00 1.4625824393462459e+00 -2.0586286252931529e-01 7.5714084019738948e+01 2.1851937747985588e+01 1.8188844660649998e+01 -9.4448432269389393e-01 -3.5981136874849540e-01 -2.4929894562137989e+00 -1.0701438466748826e+01 1.4630173888632754e+01 1.1285452391153719e+00 8.2907986279853503e+01 -2.2460729854773472e+01 -1.6328279005294078e+01 2.5440726508376175e+00 1.9102536392157496e+00 -2.9312995172388838e+01 2.4727646128631140e+01 -2.1383152754969672e+01 -1.6757796471614839e-01 -2.3993686205582890e+01 6.5976071437205661e+00 5.7408542970052947e+00 -2.9505446544564373e-01 -6.2747283276802557e-01 3.1228174110886833e+01 2.9324229760893772e-02 1.8478139130308202e+00 -1.7129701486087789e-01 2.9015888503126039e+01 -7.4066724092385066e+00 1.8861911176830034e+01 -3.8020124675954463e+00 -7.5216466573349816e-01 -7.1164040124755601e+01 -5.6315155210396757e+00 1.6239862101697089e-02 3.4243033190806266e+01 
      </Row>
      <Row Index="40">
        -3.8303110897777426e-01 4.3853853197963417e+01 -1.5568896881657290e+01 2.0986285197220513e+00 2.9839952736872437e+00 -1.1458308637401395e+00 2.7541793974543181e+00 -4.5120175167855976e+00 -2.2393856130020979e+00 -8.2330511446520260e-02 1.4591306014116071e+01 6.4070182920696039e-01 -1.6275474989809968e-02 6.6936690387304243e-01 -5.1743223879138966e-01 -8.8554464062080340e-01 -1.3415628463320619e+00 8.7041442781671230e-01 -7.4677567542776657e-02 -7.0875611619994743e+01 -4.0167823922283148e+00 -2.0513778936670919e+00 5.7006550877720852e-01 -3.9666014215713208e-01 -1.1021553542481992e+00 -7.1808444572184227e-01 -1.6784854916289715e+00 3.5177870823256974e-01 -9.9780591985445426e+00 4.5903730737997517e+00 -6.9787757069559575e-01 -4.1549843885605000e+00 1.1755333524980109e+00 2.0687864079114173e+00 6.2234984830380435e+00 2.9222393651550185e+00 -3.6364773241594039e-02 5.5523606396847924e+00 8.1016571371313173e+00 -2.9505446543164460e-01 4.6157327223887951e-01 -7.9581855062054729e-02 -2.7627032042814395e+00 6.0197711399135184e-02 -6.2181190168830100e-03 1.1048768806081069e-01 -5.5477197721595619e+00 -1.3889303757269044e+01 -2.2882566406511140e+00 9.7584377902358952e+00 -2.5921140221837575e+00 2.5622443085495012e+00 4.5152853076512400e-02 -8.8912253770162952e-01 -1.4002781871103673e+00 
      </Row>
      <Row Index="41">
        1.6465492821484968e+00 -8.8343160836644529e+01 9.6423655921252092e+00 -6.8320313242866515e-01 -4.9224112944823262e-01 2.5218428455730830e+00 3.7606167096613312e+00 -1.2824283905566602e-01 -2.6060413433408947e-01 5.3373753650092226e-02 2.1665036636873992e+01 -3.0616680011845325e+00 1.8893542341807290e-01 -1.6987877501386972e-02 5.8282350682520878e-01 -3.1878772431753433e+00 6.0528581123079235e+00 -7.5166616026652022e-01 6.8538102329029194e-01 9.6684575416213193e+01 -5.6351581952598879e+00 -2.4038945527076745e+00 -8.2665478265061709e-02 7.2953054987120325e-01 1.6514800995505965e+00 6.0462692871655808e+00 -3.8185787185195608e-01 -2.7206927560060121e+00 -3.6669175045717566e+01 1.2522728224748835e+01 1.7511271265481874e+00 4.9874694080402282e-01 -4.4831632687899976e+00 2.7380018669036295e+00 -4.4391568607302627e+00 -1.8745746742855416e+00 4.7055760510480393e-01 -2.1666487106442673e+00 -1.9769815374792550e+01 -6.2747283275915067e-01 -7.9581855060909201e-02 1.3553745513314435e+00 -5.3357404237028678e+00 -2.9808786013928241e+00 8.2434509320891824e-01 1.3495103516795073e+00 2.4783486351519244e+00 1.6785730451988666e+01 -2.4927832221167185e+00 -1.5974623109622925e+00 -1.3407926719573555e+00 1.7165310782331503e+01 -7.2146459885707301e+00 1.6230154608606766e+00 -1.3300118660145671e+01 
      </Row>
      <Row Index="42">
        -1.1208716565994791e+01 1.2435406574369408e+03 2.6068605118303185e+02 -4.6051953563505890e+01 -1.7907312592796167e+01 -4.5951249312731761e+00 -2.7391173775141431e+02 -9.4538615315227162e+01 -2.8275263017875602e+01 1.5118856791150392e+00 -1.9850907891065581e+03 -1.0416399673368755e+02 -9.1631455007429850e+00 -4.3338529845440092e+00 5.0188709253940260e+00 1.9259659314895384e+02 -5.0361882870764020e+01 -1.0457118112868329e+01 4.0347989203525003e+00 5.4130469567840919e+02 6.3338648180700034e+02 8.5451415621900424e+01 -9.2932623476456513e+00 1.3429370070170307e+01 -1.8710191457897548e+02 5.4520154507716938e+01 1.3518371895240170e+02 6.7579470841527041e+00 9.3741852447716519e+02 -5.2371006187988485e+02 -2.4329291255712391e+01 2.9010274038539642e+01 -7.3474672046589831e+00 -1.8882509136546696e+02 8.0995502456391932e+01 -9.1376122808476964e+01 -1.5795515174091292e+00 -7.8663565219695738e+02 8.3914425761246605e+00 3.1228174110503055e+01 -2.7627032043922455e+00 -5.3357404237487716e+00 5.2233302482085151e+02 8.2707664698277767e+00 1.2326051854293581e+01 -9.3669818838284780e+00 3.3406091192443546e+02 -3.9090718312133731e+01 3.8412910620947144e+01 -6.6724796631809909e+01 3.5678384143957089e+01 -1.0201526424180620e+03 -1.3552886240752954e+01 -2.9845288182802348e+00 5.0101290878517358e+02 
      </Row>
      <Row Index="43">
        8.0663539314190018e+00 1.0168603967683739e+03 5.2558537684267606e+01 -8.7509010841554868e-01 -5.2327035149743217e-01 -2.2298495582171427e+01 1.3450623341716124e+01 1.7324294139428793e+02 3.6179507500209198e+01 -2.5396196811407208e+00 3.6119228815010865e+02 2.9873879280369266e+01 -2.5679947182450746e-01 -5.9080563575363954e-02 3.3410884209843346e+00 -4.1940620326966496e+00 -3.2432494862372664e+01 1.6797182861315726e+01 2.7986449962058089e+00 -1.1371323863538273e+03 2.0204734903433007e+01 -2.1257136293608511e+01 -8.9449342774780627e-01 -3.8768998493125366e+00 -3.1827712401783742e+01 -6.1188651903341338e+00 4.6314506032377381e+01 -1.4031017405855192e+01 -4.8544281900115311e+02 -2.1807131671752222e+02 1.4821116956025065e+01 1.9156891580343731e+00 2.8553646780683323e+01 -2.7478790781013060e+00 -1.1906536051397904e+02 -5.1912288852770203e+01 7.2282090589190773e-02 8.9034450632931112e+01 1.5041505890974619e+02 2.9324229296643800e-02 6.0197711483946037e-02 -2.9808786013375013e+00 8.2707664638753826e+00 6.7570874388863075e+01 7.6407253715760088e+00 2.0349609697165945e+01 -1.5532888918559658e+02 -1.3216800418476487e+02 -2.6952074651170665e+01 1.1805094469073083e+00 -2.9586523543773271e+01 -5.2489330929689679e+01 1.0145843041482657e+02 -1.8788623380837578e+01 1.4297378636184203e+02 
      </Row>
      <Row Index="44">
        3.1979168896076260e+00 -4.7316292278745095e+02 5.6342340223255746e+01 5.5257130922779183e+00 -1.1946231991172294e+00 -1.7029804705967592e+01 7.8121884870554936e-01 2.5985196329307144e+01 8.0398277123625178e+01 -1.0880189740289268e+00 2.9500641364105104e+02 6.7118776032432947e+00 -2.9786487052543009e+00 1.5389971742786912e-01 1.4118498067360576e+00 2.4019313686139583e+00 2.0143787444783982e+01 -5.5821336249811694e+01 3.6216007015034108e+00 4.5103906302334508e+02 3.1588191386798201e+01 -5.9376097274205222e+00 -1.7546526738264467e+00 -2.8636690328111172e+00 -1.3992054369587166e+01 1.9179650337941808e+01 -3.7640120712438829e+01 -1.2165996755571502e+01 -8.7017712480825139e+02 -7.8091859966346320e+01 -1.0660999577512175e+01 2.7027210899487346e+00 1.1724398098693705e+01 -6.2524906640060181e+00 -1.4602363255092776e+01 -7.2899277290315624e+01 8.1202171636958553e-01 1.6403311195853348e+02 1.8896633665755800e+01 1.8478139128924180e+00 -6.2181189802261727e-03 8.2434509320552363e-01 1.2326051852757125e+01 7.6407253718076431e+00 5.1521455141229254e+01 1.7296834657253115e+01 -6.9270164502942492e+01 -5.6251717981139961e+00 -1.1194217729266136e+01 -1.7051114232913278e-03 -3.8957794286791930e+01 -2.9804308520978061e+01 1.6343244263988790e+01 3.2466450678401088e+01 1.0659569178656072e+02 
      </Row>
      <Row Index="45">
        3.5453014278004375e+01 -1.6345168846476008e+02 2.6745814078467163e+01 -4.2149071842999284e+00 -2.2121753939005391e+00 -5.6894979249900501e+01 9.0918180387241989e+00 2.3639250459249411e+01 8.4385711271164610e-01 -1.3448729871378234e+01 2.4910848998167785e+02 8.9017375689452365e+00 2.8994145030892469e+00 1.3373737356326370e+00 1.3026330258685263e+01 -1.0237040169243983e-02 1.0886315503037451e+01 1.0419307120638146e+01 1.1565816885680789e+01 -1.9398201115027769e+02 -2.6830053365200570e+01 -1.0425707070717053e+01 -1.5060412271588128e+00 -1.2051347113996655e+01 -1.2474845746034617e+01 6.0920250968961085e+00 2.2614160438875388e+01 -6.6454631081450344e+01 -2.9764714580413420e+02 1.4064379124205352e+01 1.0238056277154612e+01 2.1788348799245738e+00 6.1686476441986279e+01 2.5141659119901334e+00 3.7278417725112618e+00 -2.0880846146746709e+01 4.0761217027874572e+00 -6.0599001437916741e+01 -7.9658412207351192e+00 -1.7129701528387686e-01 1.1048768808681597e-01 1.3495103517608076e+00 -9.3669818891425756e+00 2.0349609696998307e+01 1.7296834657045601e+01 9.3080083462164112e+01 -7.8930862437883221e+01 -8.8759941600495154e+00 -9.3214504404041314e+00 5.4125248353325048e+00 -1.1078692220047441e+02 -1.8372877004169855e+01 7.2210137576588593e+00 -7.7161620066404337e+00 8.9868509555782069e+01 
      </Row>
      <Row Index="46">
        -1.3465267155068432e+01 3.6566138788044453e+04 -1.1411311724891711e+03 -9.2116007518799961e+01 -1.2722421328632208e+01 4.3242353203211678e+01 -2.7466219276557240e+02 -9.2010825515839679e+02 2.6765304997856219e+01 1.0228620044992567e+01 -7.7209099517393857e+04 2.3823860132207483e+02 1.5056856647421228e+02 -6.2742312691761981e+00 -1.2536889161026920e+01 1.8998492450236517e+02 1.6463583379903866e+02 -8.6769233466236983e+01 -5.6984833327514934e+00 4.9759228646881878e+04 -2.6643054481321815e+02 1.5689205199912612e+02 -1.0295818331488363e+01 1.1466896088240901e+01 -5.7209231028830982e+02 -3.7988095148950379e+02 -8.7375704847578891e+02 5.2595803038628219e+01 -3.4077662026584148e+03 1.0536242147195881e+03 -4.2973471284269181e+01 3.0346240737754396e+01 -3.6771678928082110e+01 3.6390714898903752e+02 8.9634470862426315e+02 6.0450958711497879e+02 -2.2808406940603163e+00 -1.1893232737630093e+05 -2.5847035136406930e+02 2.9015888575281224e+01 -5.5477197883612916e+00 2.4783486282641434e+00 3.3406091277510495e+02 -1.5532888911355440e+02 -6.9270164418069157e+01 -7.8930862352250216e+01 3.1508391927866785e+04 -5.6738245833240217e+02 4.6892156919627098e+02 -7.3311684437627264e+01 9.7717856671011759e+01 -1.8085684799494818e+03 -3.7261724650243627e+02 2.8330699542735101e+02 -2.9869753738390744e+04 
      </Row>
      <Row Index="47">
        2.5873093630533191e+01 -5.1234959361595102e+03 1.8641057377638283e+03 -8.3177599813690335e+01 -1.2660768743486186e+02 1.5487681802746306e+02 -6.7068119949499930e+01 -2.4752004061958428e+02 -1.3283085954593000e+02 1.0586782259604007e+01 3.8607967009092099e+03 -4.7251208353521082e+02 -5.4829811005476756e+01 -2.4298496717431661e+01 7.1854951424141461e+01 -4.5658969959147839e+01 8.2364637947480333e+01 -7.8258570668512320e+01 1.4860041695179063e+01 5.8848114848633995e+03 1.3681214049523282e+02 4.4223116576458438e+01 -1.7987004934825762e+01 6.5600555346899455e+01 6.2722865714102818e+02 3.2740876673014259e+02 8.9960459396820852e+01 -3.8989809010350385e+01 -2.5460396973011084e+03 4.4147071925126170e+02 2.4288853837911120e+01 1.5291412027099020e+02 -1.8986014181590255e+02 -4.5487913235462423e+02 -8.6830077653161680e+01 4.2677109468734443e+01 4.8356767721078882e+00 -1.6689466224640710e+03 -1.3189345038539191e+03 -7.4066724106178121e+00 -1.3889303756924232e+01 1.6785730452367414e+01 -3.9090718326702998e+01 -1.3216800419246010e+02 -5.6251718008906240e+00 -8.8759941715952380e+00 -5.6738245765148417e+02 2.3211115221891278e+03 -8.9960708958171395e+01 -4.3535304914586436e+02 3.4144840993766331e+02 1.4643703398429113e+03 -3.1986236326394567e+02 1.9520842932033261e+01 2.5774930375918143e+02 
      </Row>
      <Row Index="48">
        -7.9230391345991222e+00 3.1654112562775845e+02 -1.3056285213193189e+02 4.4782418957206310e+01 -8.9708532383122463e+00 -7.8658218147610341e+00 -1.5200927645628269e+01 -1.7642658275644283e+02 -3.5714758784820333e-01 4.8112795687643484e-02 -2.4918160192957148e+03 -1.8565429007139642e+01 2.0351454265820905e+01 -1.6793263085779344e+00 -5.0527056400442802e+00 5.3123136650128117e+01 -1.9473471338706418e+01 -5.0164740655408622e+00 -5.8195169501715327e+00 -1.6997813163092360e+02 -1.4110113470802045e+02 1.8729447771613042e+02 2.4545889226730440e+00 -7.9392118603137192e+00 4.8595038783230478e+01 -1.5828661976745099e+02 -7.6264560277435066e+01 1.4207700349267114e+01 2.5029635997199221e+03 1.9634592655058094e+02 -1.5546977487827900e+02 1.1185171826876594e+01 1.3078928190744250e+01 -9.4177202386472487e+01 2.6257422980308013e+02 6.1848501904568899e+01 -1.1876889449836909e+00 -1.5756162362319446e+02 6.0760415924415385e+00 1.8861911177804949e+01 -2.2882566409152929e+00 -2.4927832222507376e+00 3.8412910634191476e+01 -2.6952074648799634e+01 -1.1194217727650813e+01 -9.3214504379281209e+00 4.6892156883802022e+02 -8.9960708955989617e+01 2.5099856851225988e+02 -3.7712974904229554e+01 2.3416362252243488e+00 -2.1867145270636703e+02 -7.9294572965188934e+01 2.9220050587667896e+00 -2.3489629893929066e+02 
      </Row>
      <Row Index="49">
        -1.1706964613448328e+01 1.3731895530354086e+03 -5.3225522339610836e+02 5.8700538385310509e+01 7.6714611962011915e+01 -3.1763319020094684e+01 7.6338153080258650e+01 -1.0682752222632939e+02 -5.0738060110931855e+01 -3.6239845446012779e+00 6.3308832879702095e+00 2.5084511793948991e+01 5.2415458811425282e+00 1.8131276388073601e+01 -1.6285769426865393e+01 -1.5969107147507799e+01 -3.0294163069049489e+01 2.3636221302765630e+01 -3.3792397093402116e+00 -1.6842259005987726e+03 -1.4535858150725423e+02 -3.9941313364572686e+01 1.2560763518850031e+01 -1.3629844082618504e+01 -4.5181957222177701e+01 -4.2633695319090364e+01 -4.1657845790601925e+01 1.2477945363698186e+01 -3.5824647470377386e+02 2.1095575038764648e+02 -3.2046824178616149e+01 -1.0378511161182712e+02 3.5375831350752172e+01 5.0817062644728409e+01 1.6829402531961838e+02 6.2136129830587748e+01 -1.0596470868379484e+00 3.4949706897787655e+02 2.4668764622273727e+02 -3.8020124671138271e+00 9.7584377902047521e+00 -1.5974623110285360e+00 -6.6724796627345128e+01 1.1805094453656944e+00 -1.7051121414957127e-03 5.4125248353250441e+00 -7.3311684080140196e+01 -4.3535304915560710e+02 -3.7712974897466559e+01 2.6840222370396873e+02 -8.0242714798308214e+01 -4.7444314496921933e+00 7.2344650684890155e+00 -1.9053818296476738e+01 -6.2018118793321186e+01 
      </Row>
      <Row Index="50">
        -3.2078306853334553e+01 3.7914357328014739e+02 1.8789888600322143e+02 -1.3870739444356346e+01 -1.8049929305884039e+01 1.1474986441286985e+02 -4.7555094211272234e+01 -8.8701703853223364e+01 -6.1317148794930610e+01 1.9120321569005682e+01 -6.9449908209867135e+02 -1.2599927724952687e+02 -1.3633693819010176e+01 -6.3659791995335890e+00 1.2424822354668308e+01 -5.0365765705819285e+00 -5.0454356286876248e+01 -1.4725139856243219e+01 -1.0012847007856394e+01 2.9510501426123665e+02 5.3053637052444230e+01 1.3331054295719483e+01 -2.9887574722333099e-01 3.8645870705474920e+01 5.1127593111755246e+01 -1.4441629737504186e+01 -1.9470540475976634e+01 6.9283980965736134e+01 4.5765913380542770e+02 1.0725337872007070e+02 4.4962123346490976e+00 2.1671902123135990e+01 -1.0890756205900215e+02 -2.3279060861039099e+01 2.7082211046248801e+01 9.8493946199073036e+01 -5.0729751996065389e+00 -8.4938722235074238e+00 -2.6422781602931599e+02 -7.5216466541678484e-01 -2.5921140221807395e+00 -1.3407926720080714e+00 3.5678384148433821e+01 -2.9586523544146573e+01 -3.8957794286919089e+01 -1.1078692220196248e+02 9.7717856860326606e+01 3.4144840992182770e+02 2.3416362278669709e+00 -8.0242714797311493e+01 2.7715033236946635e+02 1.1224114275976228e+02 -1.6236326915915157e+01 -7.8443110677405699e+00 -9.9071410854175383e+01 
      </Row>
      <Row Index="51">
        9.1089281374734128e+00 -5.0481775895622559e+03 7.9385370252043413e+02 4.0654417116314335e+01 -3.3006634627204221e+00 8.8935806505522578e+01 7.5574314298735862e+02 1.1385480117869611e+02 -1.3296578418998752e+02 5.1863998235797908e+00 1.0011463720527478e+04 -1.7259055213832153e+02 -4.1533992662338733e+01 2.5039172810730292e+00 1.6858126326836555e+01 -5.1671470552738811e+02 7.9957248317066842e+01 7.4608883354966906e+00 8.7931644324976332e+00 7.0892902143299580e+02 -9.6554376222110773e+02 -1.6208167599252829e+02 2.5346104807029938e+01 4.2845562201224766e+01 1.1236399030609205e+03 1.8342624928181613e+02 -1.1929614434022005e+02 -1.3165149266525134e+01 -5.4316391736846417e+03 1.0142671390445080e+03 7.7123935079891908e+01 -2.6370299926223090e+01 -1.2777307837834996e+02 -1.3376479120874546e+02 -2.5858262188132812e+02 2.2195045517660816e+02 3.7963581216258149e+00 -4.5318296136005665e+02 -7.1978086295995013e+02 -7.1164040124528611e+01 2.5622443090980909e+00 1.7165310782910773e+01 -1.0201526424283390e+03 -5.2489330955308404e+01 -2.9804308527011308e+01 -1.8372877027982327e+01 -1.8085684766543816e+03 1.4643703398041703e+03 -2.1867145266506446e+02 -4.7444314300178121e+00 1.1224114278466226e+02 4.4530215880672013e+03 -9.8893649270290325e+01 -3.2718943680345035e+01 -1.5069259713324382e+03 
      </Row>
      <Row Index="52">
        3.9752131734921363e+00 1.3253489989034715e+03 -6.9750880812661649e+01 -3.0171593215368162e+01 3.4436628641920706e+00 -1.9664880911676846e+01 6.7540495551929212e+00 3.5795292711582169e+02 7.0461328404058662e+01 -4.2887262700645579e-01 1.8923862451027671e+03 7.4982313212029453e+01 1.4037035269651028e+00 -2.3002713382247393e+00 -1.4105938802385367e+00 -3.2095607033495298e+01 -6.4818918744277880e+01 1.7724995085517321e+00 4.2414965527535742e-01 -2.5273633766839048e+03 3.3687584048057175e+01 -6.8750947597215031e+01 -2.6128145683731514e+00 -7.2741810756684231e+00 -1.0948516881950565e+02 -2.9038542954245713e+01 5.8796763863801971e+01 -2.5118022446501982e+00 -5.5844939007726498e+02 -3.8048233384575485e+02 6.4864464391686084e+01 2.8342309667620258e+00 4.4183434787141636e+01 1.0049678418746893e+02 -2.3960595161570217e+02 -1.0817543727203707e+02 -1.6656298711253896e+00 -4.0820445273842779e+01 3.3323543794835655e+02 -5.6315155219708934e+00 4.5152853286186456e-02 -7.2146459884886696e+00 -1.3552886253161191e+01 1.0145843041473022e+02 1.6343244263309650e+01 7.2210137577516491e+00 -3.7261724655552837e+02 -3.1986236325493638e+02 -7.9294572968803550e+01 7.2344650728916804e+00 -1.6236326915669629e+01 -9.8893649221119460e+01 2.4822417452529348e+02 -5.3462938200361174e+00 2.9622563545595881e+02 
      </Row>
      <Row Index="53">
        -1.4153360766965761e+00 -1.2709573522067512e+03 -1.4147164716786051e+01 -1.3576136881130907e+01 -2.3293871032030360e+00 5.7368327192246511e+00 -1.1920433181901728e+01 -1.1653893156892309e+01 1.3661037802252267e+02 1.3541445124626108e+00 -1.6611106075023417e+02 2.2719315806644829e+01 6.2575632017291127e+00 -2.6741151432260963e+00 -3.9570428766216139e+00 -7.0411523336706523e+00 3.9712800543441631e+01 -9.7800807131966792e+01 -1.0246023824191468e+00 2.5396957010494079e+03 2.4244524324652161e-01 -1.8278899655740588e+00 -3.1922932916503903e+00 -3.6991063189388456e+00 -2.8862434851968715e+01 9.6112737495391514e+00 -8.0799170275883057e+01 3.3935079332728577e+00 1.4908431034791283e+02 2.9137453964453442e+01 4.5960311934654214e+00 7.7709334311349139e+00 -6.4334145026744807e+00 3.7864533034743417e+01 9.4770454362766259e+00 -8.2097392367083444e+01 2.4697390798810659e-01 2.1029701103172192e+02 -1.8228654675570706e+01 1.6239862909147362e-02 -8.8912253783771078e-01 1.6230154607279137e+00 -2.9845288083268535e+00 -1.8788623379657679e+01 3.2466450679356491e+01 -7.7161620056613032e+00 2.8330699535544875e+02 1.9520842922090537e+01 2.9220050615386697e+00 -1.9053818299267277e+01 -7.8443110699804279e+00 -3.2718943721622630e+01 -5.3462938183036730e+00 7.7719142893250861e+01 -2.0592386055544813e+02 
      </Row>
      <Row Index="54">
        1.0598942975146201e+01 -3.4598460476666689e+04 1.1450119116809801e+03 5.4702913788949445e+01 -2.2061878979984158e+01 -7.3098455794533947e+01 -4.2292188206298306e+02 6.5256258528379840e+02 1.1919862790033403e+02 -1.2564050902750751e+01 6.9209434343222529e+04 -2.7472645451342396e+02 -1.2855885169851535e+02 -3.0196565138749065e+00 1.6847738092190411e+01 2.6088213894859655e+02 -1.9662064134849061e+02 -1.2901388349186163e+01 -1.2623616856872104e+00 -4.6151505583129823e+04 1.0330742609164445e+03 7.4983929562244157e+01 -1.7833084057994597e+01 -4.0020753759425133e+01 -8.0687974068503536e+01 3.2714709191480506e+02 9.3824905039917212e+02 -4.7395562480922308e+01 7.5053255218118429e+03 -1.6007083864912947e+03 -9.5367958319095123e+01 3.9225575042125421e+01 9.4244746466923971e+01 -5.1892427413661062e+02 -6.1167434715428135e+02 -7.9936713957591837e+02 1.8627883626322728e-01 1.1868901664219517e+05 4.7607461456575260e+02 3.4243033118746098e+01 -1.4002781714184493e+00 -1.3300118653726770e+01 5.0101290794870101e+02 1.4297378630945650e+02 1.0659569170639202e+02 8.9868509486899711e+01 -2.9869753741024404e+04 2.5774930446875078e+02 -2.3489629933138627e+02 -6.2018118452848285e+01 -9.9071410681236557e+01 -1.5069259680616167e+03 2.9622563544230809e+02 -2.0592386065929267e+02 3.1186942425690671e+04 
      </Row>
    </InverseHessian>
  </Weights>
</MethodSetup>
